7
conv1 slim.layers.conv2d data relu1 4056 1 28 28 6 3 3
-0.71488363 -0.67266846 -0.84018952 0.19295911 0.06444620 0.32543802 0.26417795 0.39288861 0.51721042
-0.04875516 0.34747350 0.59416527 -0.07508727 0.30584162 0.33558550 -0.02946625 -0.81786466 -0.79772747
-0.01954578 -0.69933105 0.02097888 0.43700179 -0.33354670 -1.04639912 0.57058734 0.77400804 -0.02422667
0.89180571 -0.03290667 -1.05811799 0.92807662 -0.62146658 -0.72076190 0.15383284 -0.93844706 0.41160884
-0.13191235 0.20270726 0.11961675 0.26160878 0.10616816 -0.11874068 -0.10495513 0.08803199 0.23786549
-0.63504130 0.33495840 0.09643640 -0.20385452 0.31326339 0.34112999 -0.03581034 0.09663120 -0.21216927
relu1 tf.nn.relu conv1 flatten
flatten slim.layers.flatten relu1 fc1
fc1 slim.layers.fully_connected flatten relu2 30
0.03219823 0.00735927 -0.00176964 0.01494036 -0.01967201 -0.02236163 -0.02222418 0.03216303 0.00318675 0.03230210 -0.00317834 -0.03270346 0.00172694 0.01847062 -0.03650440 0.00820594 0.03508122 -0.01660643 -0.02823868 0.01630061 -0.03722567 0.01538971 0.01785827 -0.01407411 -0.03714905 -0.02128259 0.03458153 -0.00966888 -0.06136206 -0.02494307 -0.02964127 0.01073547 -0.04337625 0.01381660 -0.03614568 -0.03274162 0.00847119 -0.03786745 0.00424815 0.05445515 0.00850437 -0.00884326 0.06032627 0.01072431 0.02011944 0.01703260 0.00016500 0.00989347 0.05343029 -0.02264269 0.00736901 -0.02464080 0.05494047 0.01945488 -0.00844148 0.02094334 0.09480458 0.04553220 -0.01982678 -0.07252904 -0.02074984 0.03073810 0.12348183 0.03973691 -0.01428953 -0.08396800 -0.02968930 -0.02887443 0.01814644 0.02266262 0.02380771 -0.04284875 0.05719166 0.02718183 -0.02416837 -0.02318396 0.01193691 0.04032850 0.07586128 0.00960563 0.07140462 -0.03538857 0.01253730 0.00942013 0.06853280 0.02680051 0.04601612 0.08543031 0.03744716 0.01550174 0.03290230 -0.02621957 0.04823204 -0.02311269 -0.00690331 0.02312484 0.02002550 0.00438990 0.07033785 0.02513976 -0.00249834 -0.03726001 -0.01280717 0.03315148 -0.01316867 -0.00252918 0.01873891 0.00828988 0.01840314 -0.02223723 0.03312142 -0.00699723 -0.02621221 0.04356666 -0.02256879 0.03853526 -0.00982909 -0.00200342 -0.02477647 0.02966152 -0.00739889 0.02179475 0.03725272 0.00592183 0.03654066 0.02535651 -0.00253216 0.03273411 -0.02418146 0.01935427 0.00507879 0.03752242 -0.02023004 0.02705436 0.01276542 0.00856851 0.00119942 -0.02418995 0.01564121 -0.00788627 -0.03018799 -0.00825520 0.00282717 0.03776524 -0.02932343 0.02224161 0.01563590 -0.01494278 -0.02192320 0.00026533 0.02115362 0.00705745 -0.01371971 0.03017061 -0.02047450 -0.00720120 0.01961202 0.02599013 0.01665802 -0.02172250 0.00946844 -0.02858225 -0.00118368 -0.00047785 0.03710963 0.02886976 0.00907415 -0.01565995 0.01282328 -0.03063290 -0.00274029 0.02919498 0.00099795 0.01790052 0.00352731 0.01310121 -0.02511854 0.00787389 0.02954236 -0.01089406 -0.05738610 -0.06052844 -0.03776923 0.01059571 -0.03686598 -0.03037306 -0.00101471 -0.06866502 0.03326955 0.02035508 0.02110074 -0.03627536 0.01196195 0.02964466 -0.04994487 -0.03091220 0.01860838 0.03905654 0.02949985 0.02872221 -0.01550883 -0.03082986 -0.02688353 0.04118519 0.02043771 -0.00702211 -0.01242956 0.02664702 0.01421223 0.02567973 0.04029536 -0.06633214 0.00658441 0.02281384 -0.00205415 -0.07319150 0.03728383 -0.11889821 0.02980904 -0.00064496 0.00979893 -0.07250426 -0.04951414 -0.10237914 0.02965849 -0.07896017 -0.08297255 -0.00603032 -0.05240176 -0.03344981 -0.04871863 -0.03118784 -0.05916324 0.02478094 -0.07432557 0.02941887 -0.05650203 -0.07166003 -0.09017734 0.03839009 -0.07678071 -0.01553574 -0.09340609 0.02735055 -0.00461459 0.02137542 -0.06454078 -0.02604359 -0.03790490 -0.04896601 -0.05745937 -0.01420081 -0.02527837 0.03254527 -0.08858880 0.01823498 -0.02190071 -0.00009411 -0.07705513 0.02922875 -0.04408817 -0.02752757 -0.04632394 0.04175398 -0.05720263 0.02512892 -0.10903656 -0.04751795 -0.01305500 0.01387535 -0.09298711 -0.00262499 -0.05284792 -0.07397288 -0.00732996 0.00439119 -0.09365083 0.02245046 -0.08812237 0.01698407 -0.03122093 0.02263665 -0.07944348 -0.04234450 -0.05910661 -0.00257363 -0.04040011 -0.05494220 -0.08736924 -0.04019741 -0.11538243 -0.03841054 -0.05050275 -0.05008230 -0.00419280 0.01389262 -0.05652407 -0.02397683 0.00589080 -0.01808487 -0.04467769 -0.01884850 -0.06795334 -0.01887145 -0.03389222 -0.02439445 -0.00042185 -0.01869040 -0.02296619 0.01413596 0.01728972 0.00161349 0.01443652 0.00121202 -0.03729778 -0.00675796 -0.02010970 -0.00996391 0.01014853 0.03592454 0.00265794 0.03767328 0.02455873 0.02893320 -0.02481811 -0.02125108 0.05940125 -0.03703675 0.00052276 -0.00776453 0.01751645 0.03267870 0.00931037 0.02360276 0.01443182 -0.01662736 -0.00820000 0.00325544 0.02524921 -0.01742637 0.03262769 -0.01838806 0.00059987 -0.03228164 0.02671903 -0.00416877 -0.01334315 -0.02456903 -0.02972115 0.06201114 0.03749220 -0.09854005 -0.02290620 0.00272516 0.00042230 0.00105169 -0.03028104 -0.00782378 0.01453617 -0.01019665 0.02014863 0.03050216 -0.00383415 -0.04139565 0.01119627 -0.02980030 -0.03670929 -0.04791206 -0.03441114 -0.05212486 -0.00018868 -0.04733787 -0.00617406 -0.02474936 -0.02530850 -0.00817409 -0.03068600 -0.01243496 -0.06374396 -0.07773881 -0.04575252 -0.01048003 -0.00122253 -0.02951580 -0.08895070 0.03743558 -0.03567960 -0.05333127 -0.08419403 -0.09186988 -0.02438897 -0.00280218 -0.03486885 0.01611437 -0.07184390 -0.08040322 -0.03709492 -0.02708336 -0.08532268 0.01486809 -0.08625413 -0.07060742 -0.10387438 -0.01441705 -0.11652481 -0.03639878 -0.05682070 -0.02522270 -0.10614611 0.01855693 -0.08843111 -0.04499854 -0.06406485 -0.03925234 -0.07703661 0.00410356 -0.02723141 -0.03076185 -0.02128073 0.02266941 -0.02656283 -0.00086788 -0.07433964 0.01244380 -0.00104685 0.01169509 -0.07562713 -0.04288093 -0.05104831 -0.02768330 -0.01060402 -0.05400056 -0.05019033 0.02738093 -0.01622416 -0.02278574 -0.03257995 -0.06308011 -0.05749729 -0.01773604 -0.03097409 0.00742137 -0.05864913 -0.06131591 -0.05638519 0.02956071 -0.05837670 -0.03754037 -0.09032702 -0.04497680 -0.10724851 -0.01218601 -0.08619162 -0.05706203 -0.05480861 -0.01825462 -0.05954296 -0.01101120 -0.04040196 -0.05274497 -0.03029616 -0.02394029 -0.07204064 0.00765382 -0.03465620 -0.00583910 -0.02597225 0.03473848 -0.00279526 0.00690696 -0.02127142 -0.00076171 0.01340839 -0.01482850 0.02395134 -0.00973151 -0.00994475 -0.02591370 -0.02533211 0.00953010 -0.00798493 0.03299947 -0.03120418 -0.06919771 -0.04328601 -0.01339390 -0.05794319 0.02639908 0.03356957 -0.05656927 -0.11454301 0.01326254 -0.11423576 0.00306585 -0.10313054 -0.07079089 -0.10000402 -0.00196626 -0.13021806 0.01158279 -0.16896227 -0.02813200 -0.09592069 -0.07403810 -0.10462523 -0.00482500 -0.13119854 -0.13497604 -0.02553337 0.00901117 -0.06587911 -0.01546241 -0.06010254 -0.03948527 -0.06698182 -0.00750009 -0.09358123 -0.00401523 -0.08330529 -0.05332948 -0.06860848 -0.03983292 -0.13955617 -0.00968724 -0.10420117 -0.10404577 -0.13114156 -0.03210380 -0.13015403 0.00770857 -0.15253475 -0.05539133 -0.07777425 -0.05474876 -0.04083962 0.01234807 -0.10522971 -0.02416588 -0.03767700 -0.00664140 -0.01322013 -0.06758044 -0.05360277 0.01426676 -0.02119571 -0.10740443 -0.03477312 -0.07756465 -0.01870568 -0.06531506 -0.04902928 -0.12190548 -0.08216250 -0.04426448 -0.02302452 -0.02186699 -0.09632026 -0.09838034 -0.05454416 -0.05865905 -0.03218376 -0.06626206 -0.04844068 -0.05122546 -0.03956342 -0.02094963 -0.04557405 -0.09311390 -0.00424063 -0.03524934 -0.03280906 0.00509327 0.01695681 -0.07974904 0.00337747 -0.05775113 0.04828482 -0.00036301 -0.02566120 -0.02619176 0.01235234 -0.04328036 0.07239355 -0.02859227 0.02237388 -0.07462049 -0.01515890 -0.02564703 0.10448024 0.00880043 0.09297377 -0.07998329 0.03112304 0.00118232 0.08505264 0.02335858 0.08006085 -0.01224605 -0.02968237 0.01490799 0.05648138 -0.04524332 0.07649055 0.01336685 0.01295554 -0.02020417 -0.03336013 0.00898574 -0.01585220 -0.01085184 -0.06704392 -0.02299124 -0.02344481 0.03197242 -0.05447235 -0.03919923 -0.03977577 -0.04998771 -0.07674757 -0.00698668 -0.07908519 -0.08245480 0.02816079 0.00784325 -0.00176695 -0.02023342 0.01618616 0.02344721 0.00827698 -0.02062770 0.01618255 0.03742629 0.01626113 -0.00815484 -0.01765994 -0.00185611 0.04513567 0.00498957 0.06922676 0.06561846 0.03545617 -0.01236067 0.10246889 0.02043804 0.06848771 0.06703914 0.09507950 -0.00322571 0.03355281 0.00270408 0.12100394 0.07264075 0.01731671 -0.07867289 0.09124470 -0.03815435 0.12734342 0.08158868 0.10576401 -0.03628958 0.04182175 0.01067352 0.13612814 -0.06139053 0.11592192 -0.08690042 0.00076996 0.00923305 0.11764491 -0.11273987 -0.01409691 -0.00727812 0.00112409 -0.03731652 0.04984142 -0.00396313 -0.06052237 -0.04955189 -0.06325316 0.00725905 0.00759906 -0.10064903 -0.08133762 -0.10368338 -0.08125265 -0.00011964 0.02235362 -0.02232164 -0.04671993 -0.05700998 -0.07342876 -0.00732776 -0.02037709 -0.06404338 -0.09467294 -0.07929157 -0.06909607 -0.05582873 -0.02164920 -0.10017994 -0.07688817 -0.07301264 -0.04335008 -0.06943209 -0.00848747 -0.04264512 -0.03470035 -0.08020220 -0.07375178 -0.06624293 -0.03297000 -0.02773573 -0.04444936 -0.10401209 -0.06362469 -0.01108825 -0.06888044 -0.09520967 -0.04886231 -0.03193941 0.01262326 0.02940376 -0.05867280 -0.11830808 -0.00527244 0.01578104 0.03554165 -0.01314986 -0.06320196 -0.04921219 0.00970657 -0.02158604 0.05045184 -0.01305686 -0.08069841 -0.03413823 0.03259010 0.00479928 0.03095421 0.00053981 -0.03534735 -0.07830605 0.01356743 0.06597741 -0.01105112 -0.02262696 -0.00597248 -0.06404492 -0.00974833 0.06023199 0.02842899 -0.00630334 0.00964042 0.08170199 -0.01769921 0.05000041 -0.05859686 -0.05397155 -0.04770073 0.01017133 0.04939826 -0.02467228 -0.00678323 -0.04495556 -0.03087681 -0.03696754 0.01664555 -0.02425118 -0.05910170 -0.00086957 -0.04586718 -0.04195735 -0.05516391 -0.07522457 -0.02529967 0.04125704 -0.06500884 -0.19988424 0.01953341 0.01771438 0.16583025 0.03406918 0.03248454 0.10138210 0.13124850 -0.01973077 0.06837428 0.02016063 0.12088189 0.04843477 0.07091924 0.07584201 0.16064957 0.00924355 0.08547871 0.25147727 0.12771921 0.03716551 0.00587042 0.03580156 0.18961330 -0.08083812 -0.05132088 0.07465265 0.03535996 0.07357648 -0.03317064 0.14189576 -0.01829543 0.04255768 0.05610794 0.02137868 -0.05264138 -0.16551533 -0.02348534 0.02926901 -0.02202547 -0.01489756 -0.05601520 -0.05890615 0.00049312 0.12750486 -0.04396332 -0.04201389 -0.08669538 0.05512448 0.00852573 -0.00471967 0.01022636 -0.01223310 -0.05659891 -0.00710204 -0.00456825 -0.06233999 -0.03156727 -0.03526521 0.03171159 -0.17258450 -0.04533421 -0.02833891 -0.00741924 -0.04965393 -0.00484359 0.06536990 -0.11794417 -0.03402236 -0.02616683 -0.07623968 0.02054501 -0.02200196 -0.04819502 -0.03485037 -0.01995770 -0.04302279 -0.06496526 -0.05241245 -0.09753574 -0.04364963 -0.05250979 -0.06475307 0.00619610 -0.12656750 -0.06824823 -0.07405008 -0.00500624 -0.09162799 -0.03375176 -0.04793099 -0.04869263 -0.10679813 -0.00415674 -0.02043461 -0.06035884 -0.09070268 -0.06290369 -0.01022921 -0.07423508 -0.00527202 -0.08124947 -0.06456251 -0.08184120 0.01226608 -0.03125931 0.01626064 -0.09270623 -0.01014063 -0.01235683 0.00219812 -0.04766620 0.04644595 -0.09311670 -0.13297586 -0.05216038 0.01114794 -0.01114066 0.07317584 -0.05047381 -0.11362830 -0.00191200 -0.01319858 -0.04943879 0.08987715 0.00958161 -0.01460487 -0.01249786 -0.06818425 -0.04025919 0.06634368 0.02457928 0.09663652 -0.06340197 -0.06302164 -0.00629292 0.01906737 -0.07828051 0.10093740 -0.07082888 -0.08216822 -0.07004005 0.01325810 -0.11521805 -0.11535628 -0.08571057 0.04376548 0.00742151 0.02455086 -0.03428561 0.01898236 -0.07050861 -0.02350552 -0.13253862 0.00999065 -0.17997211 -0.13857017 0.01694142 0.01234081 0.22714508 0.00659519 0.03661615 0.16627590 0.13752346 0.01308129 0.11218740 0.01956269 0.13163732 0.19893719 0.11723396 0.02335561 0.18498649 0.01208438 0.17884795 0.04295224 0.06204015 0.09903698 0.05013880 0.04630730 0.25659195 0.11661655 -0.00254744 -0.00090383 0.04890373 0.00711882 0.10440040 -0.10411611 0.05379522 -0.00790190 0.01369414 -0.00143081 0.06558594 0.00166946 0.03479112 0.04858627 -0.01026687 -0.01465571 0.02575048 -0.12198846 0.00360208 -0.03163840 0.04465845 -0.00584086 0.08338357 -0.01319253 0.04147020 -0.06092537 0.06593711 -0.07363557 0.02440594 -0.00774706 -0.02815916 -0.01410342 -0.00246585 -0.06408858 0.03145191 -0.06221735 -0.04406735 -0.03155072 0.07249372 0.05002780 0.16297248 0.00237508 -0.04655493 -0.08927931 0.03072359 0.00961595 0.11208159 -0.01192108 -0.07330897 -0.05850659 0.06968649 -0.06471153 0.09538040 -0.08704976 -0.03228030 -0.05573666 0.04886670 -0.09717543 0.04807840 -0.09960318 -0.06640895 -0.08922447 -0.00590906 -0.06848347 0.01951176 -0.07730384 -0.07946479 -0.06456729 -0.01638826 0.03581568 0.04349934 -0.06389903 -0.04064025 -0.09860697 -0.02047243 0.00973662 0.04463426 -0.09192186 0.02075786 -0.11002284 -0.03196511 0.03490676 0.06628965 -0.10412244 -0.07899914 -0.05747482 -0.00137370 0.00531372 -0.00968743 -0.14095658 -0.02861896 -0.06008779 0.01302870 -0.02503315 -0.06811555 -0.07273107 -0.01329049 -0.02682778 0.02108784 0.02166317 -0.01311610 -0.04463016 -0.01177495 -0.04159922 0.06878120 0.02040148 0.13224705 0.07085860 -0.06415220 -0.08771113 0.06752278 -0.01304871 0.00651853 -0.00845069 -0.04659637 -0.03360798 0.02059553 -0.04916865 0.00375374 -0.12893350 -0.07161052 0.01640403 0.00935354 -0.01641305 -0.00943186 0.04446733 0.00505087 -0.03699955 -0.06442171 -0.03024989 -0.09983822 -0.13798797 -0.09793497 -0.02690425 0.14026470 0.15760463 -0.00178765 0.11290152 0.07306578 0.15919791 0.24176362 0.07824724 0.16799828 0.16776749 0.15540202 0.10222599 0.17597790 0.14262408 0.25051829 0.22532682 0.21814303 0.11063676 0.14165835 0.00709327 0.20820598 0.07391953 0.05067132 -0.01791446 0.11459671 0.04781731 0.17797323 -0.01686682 0.02149098 -0.00447562 0.08979180 0.12417450 0.10348933 -0.12891153 0.02515841 -0.01149855 0.07302571 0.06534916 0.08031212 -0.05998870 0.01336852 0.04424949 0.03944332 0.01751452 0.02180000 0.01328168 0.00594920 0.02070375 0.07651629 -0.01016347 -0.00260162 -0.05595792 -0.01159573 0.02088138 0.04766457 -0.02837451 -0.03485062 -0.08534242 0.01704357 0.00192839 0.06915811 -0.04199623 0.06969811 0.04866654 -0.01293778 -0.08080066 0.11008101 -0.05776937 0.06812759 -0.05704420 0.01064573 -0.04177897 0.16426478 -0.06778578 0.19419840 -0.04451647 -0.02195885 -0.00808915 0.09204182 -0.01712037 0.14340706 -0.12096759 0.00585447 0.05940581 0.05130139 -0.00799266 0.13071455 -0.09364597 0.03654347 -0.04417117 0.06874727 -0.03363167 0.01605253 -0.03221336 -0.02101566 -0.02358231 0.13799977 -0.05998432 0.04308899 -0.06244699 -0.03744700 -0.06163778 0.12189483 -0.03886720 0.09336101 -0.06234749 -0.00336942 -0.01720955 0.05689307 -0.09175548 0.05713878 -0.08861914 -0.01724384 -0.00757075 0.06594503 0.00117659 -0.05025139 -0.04878670 0.01400542 0.04116187 0.04319262 -0.11670776 -0.01531441 -0.06155588 0.05938965 -0.03899554 0.13783717 -0.12315002 0.05616005 -0.01761347 0.00633518 -0.05803403 0.10531501 -0.03966914 0.12629543 0.00667487 -0.02523941 -0.00840517 0.05053994 0.00806220 0.04235833 -0.07851571 -0.00317326 -0.18964663 0.08458012 -0.06655581 0.02840530 0.05390455 0.01046648 -0.07827364 0.01897263 -0.03037235 -0.03702806 -0.17953427 -0.05494537 0.01975396 0.14388169 0.26095733 0.01046425 0.10687947 0.16896261 0.17949830 0.09141739 0.09892367 0.10472471 0.00437361 0.12187149 0.17441186 0.14389834 0.12960005 0.06318209 -0.04487482 0.06914669 0.20722650 -0.01132039 0.04782668 -0.04511909 -0.10705900 0.02236052 0.08484758 0.00843317 0.03162367 -0.10106799 -0.08278647 0.00573416 0.04872910 0.01477121 -0.05735346 0.03414029 0.05430925 0.07583383 0.02670398 0.01917246 0.00668648 0.07292666 -0.02522765 0.07330746 0.02132869 0.00528155 0.02583980 -0.02474979 -0.14546925 -0.02659347 0.07727429 0.01033930 0.08512414 -0.06099638 -0.14706770 0.02235983 0.02374866 0.01198746 0.02261834 -0.04027123 -0.03293947 -0.00029321 -0.04274558 0.04972674 -0.00273453 -0.01806683 -0.07443151 -0.05553440 0.01231365 0.05969711 -0.05716969 -0.00335863 0.00116345 -0.03299697 -0.02568892 0.02263156 -0.01322253 0.02533194 -0.06689189 -0.00943528 0.07363801 0.16649568 0.05983927 0.10622481 -0.13330416 0.04483286 0.01630333 0.25813457 0.11304250 0.15848802 0.01497613 0.03014871 0.03565706 0.18290021 0.02013558 0.15561129 -0.01881314 0.03481542 0.04345185 0.10621018 -0.00460075 -0.03023118 -0.08967552 0.00067352 0.00284133 0.09631160 0.01168879 0.04416010 -0.03829430 0.01789651 -0.01781257 0.02937499 -0.00099150 0.09111967 -0.04127980 0.00405483 0.02424258 0.05490385 -0.04505471 0.06585751 -0.04337498 0.01880176 -0.03658980 -0.03118157 -0.07241371 -0.02503112 -0.09190304 0.05138763 -0.02737243 -0.03320113 -0.00563594 0.14537691 -0.02851745 -0.00052794 -0.02519603 0.02997420 0.04595479 0.21273686 0.04207097 0.07289918 0.00065130 0.13186462 0.02545171 0.11700200 0.04530007 0.01742016 -0.06647160 0.06844862 -0.05642188 0.11415058 0.06414457 -0.02365322 0.09106457 0.07113111 0.03283413 0.04567478 -0.07510820 0.12424584 0.08483960 0.24182929 0.16025396 0.07790270 0.08758925 0.14119044 0.14788103 0.09624871 0.20980039 0.07156100 -0.03426096 0.13770723 0.15245587 -0.10884598 0.17358024 0.12785988 0.02677945 0.08582212 0.19367018 -0.21175040 0.16907056 0.01161448 -0.09375455 0.05629393 0.05371904 -0.21521103 0.04378440 -0.06963144 0.13343555 0.03429759 0.03418665 -0.12689586 0.07759936 -0.04391808 0.04755352 0.02015845 -0.01041555 -0.04882501 -0.00176848 -0.12472446 -0.14956388 0.00426345 0.02194627 -0.04648088 0.06653102 -0.10133486 -0.02018760 -0.02834239 0.04562818 -0.03208692 0.11226845 -0.03871890 -0.08238874 -0.00289521 -0.02794340 -0.03190022 0.05894107 -0.02075645 -0.05617216 -0.05347385 -0.01788911 -0.02015538 0.05649159 -0.09706768 -0.07542410 0.01664335 0.04555801 -0.01273485 0.09560732 -0.09774213 -0.01134547 -0.02455952 0.06213546 0.00253173 0.12535024 -0.02299834 -0.05491269 0.03096598 0.01065692 0.00067981 0.12552162 -0.03771500 -0.03971591 -0.00788237 0.09863446 0.03444755 0.14050566 -0.07923332 -0.01530425 0.01909417 0.05433473 0.07897356 0.13228467 0.07695407 -0.03457747 -0.02969509 0.02063847 0.07413121 0.17291035 0.06813788 -0.09943188 0.00753721 -0.00536095 -0.01075871 0.10105851 0.01537932 -0.16989842 0.06349362 -0.08172335 -0.00174462 -0.06157669 0.14447780 -0.05782073 0.02275929 -0.04997982 0.13288668 -0.12398721 0.17729655 0.05128020 0.04889909 -0.08149503 0.07577290 0.06900235 -0.01505733 -0.14814855 -0.02427446 -0.01548823 0.13775979 0.13764973 0.10314035 -0.02519820 0.02707347 0.00816216 0.16446464 0.11314143 0.07827362 0.12224096 0.08823961 0.01652323 0.21899892 0.09032980 0.04418959 0.06201201 0.09337738 0.04288096 0.20901921 -0.00196455 0.11695955 0.00061244 0.08117030 0.13540627 0.16511518 0.05174946 0.17010325 -0.03091020 0.08184883 0.07563867 0.18155700 0.17602918 0.04890596 0.03844892 0.04772976 0.12605521 -0.05062168 0.16431396 0.03518204 -0.07917950 0.02204877 0.07314390 -0.13579924 0.17047477 0.08833687 0.05253980 0.00026966 0.12796524 -0.16983743 0.11453510 -0.04766668 0.08631324 -0.03708822 -0.03857728 -0.11393983 0.10978254 0.02126388 0.04515987 -0.08326347 0.02166760 0.00935972 0.08846291 0.01449499 -0.12463538 -0.03464007 -0.05329966 -0.05839378 -0.02810453 -0.00621948 0.03741066 -0.04424240 -0.04189602 0.02487956 0.01615177 -0.19763069 -0.14163366 -0.03719975 -0.02690638 0.02701439 -0.03809695 0.09152627 -0.00265607 0.02826389 -0.08733308 -0.00912736 -0.00867031 0.00268279 0.02593134 -0.03468489 -0.01777724 -0.07653653 0.06365115 -0.01807966 -0.03097897 -0.06329899 -0.03794061 -0.11687860 0.14254594 0.00318040 -0.08146934 -0.02591300 -0.03067208 -0.09787801 0.13868895 -0.07490394 -0.09880936 -0.06793659 -0.02899823 -0.13411474 0.13207109 -0.06149456 -0.03352517 0.01463602 0.02037306 -0.09148771 0.14877877 -0.08202954 -0.01381138 -0.07293369 -0.08709858 -0.09707548 0.10888626 -0.18650450 -0.10943434 -0.06942388 -0.09686979 -0.08776937 0.09909357 -0.00646756 -0.09677828 0.00006941 -0.02526456 -0.02917112 0.10484273 -0.03311430 -0.12183738 -0.01278140 -0.03934241 -0.01043716 0.00490285 -0.02410925 -0.07809401 0.01340431 -0.03839608 -0.10669924 0.00578287 0.06611960 0.02222350 0.05245641 0.05197071 -0.06056767 0.20375688 -0.05477305 -0.02887219 0.10632215 0.06451362 -0.05255730 0.15464278 -0.04401057 0.05990176 0.09044266 -0.05603708 0.07574276 0.16867758 -0.09830184 0.11781228 -0.01855476 -0.01436004 0.07596710 0.03447166 -0.12221316 -0.01815043 0.05396640 0.08549058 0.03410207 -0.02650490 -0.00564036 0.00719617 0.16893262 0.13439599 0.15634775 0.06651971 0.12726393 0.09230113 0.14477815 0.10757219 0.09374674 0.13856611 0.03877369 0.01504081 0.13548723 0.12012932 -0.05339832 0.28075203 0.03235194 0.05761054 -0.03251191 0.00139956 -0.12002750 0.20320293 0.10771928 0.00786239 -0.15918705 -0.07819034 -0.06024110 0.03195455 0.06349300 0.03276496 -0.11472787 -0.15920335 0.08577515 0.07648765 0.13270697 0.05861655 -0.07994995 -0.08549247 0.05697791 0.00431388 0.12705575 -0.03315986 -0.06999990 -0.05574669 0.05503571 -0.06417002 0.12036716 0.04430674 -0.01192120 0.04906160 0.12642257 -0.05782663 -0.03215868 -0.08781561 -0.01399316 0.01565259 0.05198562 -0.05101537 0.02841532 -0.00754076 -0.00869196 -0.04421490 -0.10406139 -0.08454656 0.07378999 0.03569845 -0.00010048 -0.01108942 -0.03837281 0.00137917 0.03096822 0.00597992 -0.00986720 -0.04853527 -0.04525901 0.02771620 -0.02664273 -0.01321356 -0.03431018 -0.08761929 -0.11813946 0.06490446 0.00892454 0.00505561 -0.08110859 -0.03218406 -0.04872901 0.00433897 -0.02213131 -0.12962434 -0.11417869 -0.11973541 -0.10038051 -0.01280497 -0.01472855 -0.05032922 -0.13820769 -0.16553755 -0.12394793 0.04569484 -0.14906694 -0.09872013 -0.10097405 -0.10725291 -0.02030593 0.10119407 -0.10254943 -0.14611377 -0.06393113 -0.04149557 0.00877177 0.01745594 -0.06043835 -0.04590128 0.00731389 -0.00971229 -0.00133594 0.11808668 0.07269230 0.02563256 0.06119377 0.03150942 -0.10319877 0.16467263 0.04088726 -0.02449683 0.05893799 -0.01077667 -0.10194976 0.11407726 0.09617610 0.05265974 0.00535492 -0.06384744 -0.06470045 0.15462328 -0.05603031 0.04165606 -0.04903730 -0.15386538 -0.09868623 0.07980498 -0.13739403 -0.01787290 -0.08733210 -0.12105220 -0.10502481 0.15921028 -0.18511575 -0.07135817 -0.03154770 0.02675614 -0.07848859 0.15161419 -0.13259575 -0.02015438 0.08693409 0.12028915 -0.01668079 0.11062134 0.12177958 0.17584985 0.15422814 0.00211054 0.02994163 0.10253187 -0.01879819 -0.02656475 0.03952248 0.04885964 0.12333911 -0.03467612 0.05581333 0.01297021 -0.02614728 -0.07965066 -0.00941986 -0.05152172 0.05475310 0.11238683 -0.19820070 -0.19909160 -0.02786713 -0.12970959 0.10956499 -0.14496969 -0.15271330 -0.15019758 0.09540981 -0.14655958 -0.01777300 0.17031783 -0.12093659 -0.07322812 0.08927771 0.02151860 0.02451488 -0.05713968 -0.02628500 -0.00550591 0.09906454 0.00672349 0.07665709 -0.05234022 0.02742361 0.05864067 0.08345664 -0.03891807 -0.03493616 0.02712381 0.04597917 0.08782455 0.00082014 0.01651820 -0.00991095 0.00890217 -0.01255411 0.02735292 -0.02904165 -0.04081052 0.07131272 0.08932389 0.01193164 -0.02915841 0.02087075 -0.09647924 0.05128685 0.07143927 -0.05494260 -0.12973902 0.00039989 -0.05866576 0.01659409 0.05407210 -0.09105823 -0.06066334 0.01704108 -0.01018774 -0.00969664 -0.08702578 -0.08672947 -0.11030521 -0.06487933 -0.01384472 0.01060117 -0.09730688 -0.12913726 -0.13722281 -0.08308805 -0.03207799 -0.01935632 -0.02578288 -0.14615488 -0.09409460 -0.04250286 -0.05626145 -0.07773204 -0.09395543 -0.11327408 -0.07922720 -0.05386005 -0.05341986 -0.04783290 -0.13441895 -0.06910542 -0.02002310 -0.08282927 -0.04647747 -0.07358419 -0.08404779 0.00707439 0.03522455 0.00037190 -0.03404999 0.04754222 -0.07105865 -0.01125667 -0.01595345 0.02660175 0.03105454 0.09628194 0.05299902 0.05707165 0.04539504 0.00309204 -0.01995005 0.11901213 -0.00026886 -0.00751670 -0.10694312 0.05114536 -0.09485375 0.05007759 -0.04157704 -0.06548735 -0.17403518 0.12639813 -0.04460481 0.02384313 -0.11536083 -0.08989368 -0.13874054 0.07248896 0.03977952 -0.04684402 -0.15984519 -0.12375904 -0.05814796 0.07527026 0.16582465 -0.06729551 -0.06362376 -0.04253007 -0.01638724 0.00307589 0.08138309 0.09652568 0.17005719 0.06336866 -0.00577646 0.02300679 -0.01353257 -0.00170173 -0.01687562 -0.02108183 -0.03013236 0.02971155 -0.04698465 -0.01577719 0.01565883 -0.11653340 -0.05176348 -0.03595352 -0.14896713 0.12863569 0.06661060 -0.18235491 -0.18059829 0.04289902 -0.07665919 0.14869444 0.15668520 -0.11828806 -0.18281357 0.09310222 -0.05787122 -0.03507715 -0.01357945 -0.06669830 -0.03317212 0.10283010 0.04073574 -0.12992245 -0.11134861 -0.01234567 0.04543952 0.03310804 0.04675559 0.02509485 0.09024622 0.05654714 0.12083139 0.07408058 0.07187463 0.11369275 0.10821268 0.08316413 0.10707911 0.03779198 0.05976211 0.07111268 0.04015621 0.06141016 -0.00852001 0.04386932 0.04693129 0.03386292 0.07789657 -0.04593544 -0.01817602 -0.02074287 -0.04594164 -0.02642520 0.14013202 -0.10858058 -0.07143179 0.01633915 -0.04410025 0.01350702 0.03077908 -0.09226995 -0.08085687 -0.01355151 -0.03651141 -0.02513932 0.03625457 -0.05517343 -0.05772374 0.01872450 -0.08564176 0.06174376 -0.07678774 -0.04817237 -0.14236157 0.01803507 -0.13702071 0.05496126 -0.07424398 -0.14167982 -0.12653404 -0.00358119 -0.09262265 -0.04978404 -0.14652053 -0.11038169 -0.06538601 0.01217617 -0.12970187 -0.07869420 -0.15981348 -0.04488058 0.04574268 -0.06012722 -0.07694189 0.00216844 -0.07815325 0.00611871 0.08668835 -0.10971617 -0.15802847 0.03271319 -0.05104961 0.01396895 0.00069217 0.00593018 -0.10133959 0.06030725 0.02240602 0.02392573 -0.08637667 0.07730928 -0.05502396 0.08418663 0.00581321 0.01242709 -0.06669804 0.12899522 -0.17431343 0.09564248 -0.06115503 -0.02039038 -0.05728649 0.11808474 -0.04521588 0.03453398 -0.06145729 -0.07953814 0.03269617 0.13603130 0.08379684 -0.02800433 -0.05044441 0.01276332 -0.01611167 0.07609555 0.04649238 -0.07531456 -0.04392689 0.07192665 -0.10798479 0.06221113 0.00383442 0.07163744 0.08395459 -0.01079576 -0.06233277 -0.02610870 0.03880525 0.06255582 -0.02015223 -0.01862835 0.02185396 -0.03215926 -0.04119554 0.00774412 -0.01411327 0.00246011 -0.01273949 0.05025703 -0.13577786 -0.06211359 0.06856949 -0.14904937 -0.11728679 0.12632170 -0.11719459 0.08901305 0.12209936 0.04082026 -0.13610488 0.12901840 -0.10007297 -0.01661843 0.02068281 0.01085882 -0.00621976 0.08838478 -0.01969711 -0.02740308 -0.07583386 0.03327560 0.12319337 0.05009539 0.03952101 0.03841937 0.13329051 0.04936878 0.03762998 0.07163592 0.02374069 0.04036633 0.21930419 0.07620597 0.13251865 -0.00199118 -0.05971603 0.01005048 0.10704725 0.03269056 0.02722995 -0.03874709 -0.05641969 -0.01368275 0.17196304 -0.00131534 0.05576250 -0.00655428 0.06644561 -0.01402539 0.06721582 -0.08381336 0.02758513 -0.02678719 -0.03245338 -0.01440510 0.05299792 -0.06203200 -0.06798764 -0.12402736 -0.07371153 -0.07362799 0.03945320 -0.09291317 -0.06325523 -0.04474925 -0.10952375 -0.07469009 -0.14591919 -0.07402915 -0.07681055 0.02648644 -0.10047667 0.03444486 -0.06987121 -0.05934706 -0.09985370 0.05934772 -0.08484007 -0.10118208 -0.06879719 -0.08683971 -0.02793840 -0.05382216 -0.15625910 -0.14216529 -0.15622036 0.00611845 0.10944332 -0.11741616 -0.06430349 -0.02007237 -0.08862586 -0.00244596 0.09006216 -0.07459754 0.08363047 -0.04021788 -0.05522072 0.01791673 0.00855331 0.02333518 0.04985648 -0.01283249 0.05329008 0.05006493 0.02100182 0.06525489 0.07501630 -0.02059974 0.01514025 0.03213132 0.05292000 0.04039200 0.08322305 0.06710723 -0.01398242 0.02811729 0.02818361 0.13824388 0.09662400 0.08251326 0.03892779 0.05595195 -0.07143330 0.16386911 -0.06413791 0.07827003 -0.00515356 0.04917409 -0.02638393 0.08715288 -0.05323870 -0.05036832 -0.01503230 -0.17042987 -0.04946790 -0.07237173 -0.02108181 -0.04158493 -0.04759864 -0.08279605 -0.01584287 -0.02321457 0.00845557 0.01855159 -0.02630544 -0.03398017 0.03812063 0.00104538 0.02902265 0.00786800 0.02268490 -0.03860477 -0.05083235 0.04996659 -0.06246864 0.00026313 0.02877375 0.01256801 -0.07212237 0.06293010 -0.02851614 -0.06402930 -0.05667238 -0.06517713 0.01752669 0.06468686 -0.01896829 -0.08849593 -0.12324280 0.03492323 0.07834136 0.04026945 -0.03473068 -0.09770060 -0.03271881 0.02661303 0.07423154 -0.02767170 0.00885044 -0.06343618 0.15823402 0.09174266 0.10995715 -0.08338449 0.01904917 -0.03516148 0.15762785 0.09995795 0.08031344 -0.08364721 -0.03868021 0.00408850 0.14971769 -0.01853367 0.00158328 -0.03845029 0.04335897 -0.00056203 0.11967552 -0.04769365 -0.06377114 -0.08280420 0.01477038 -0.01295688 0.11840566 -0.07764038 -0.03631724 -0.05576210 0.06556308 -0.06859300 0.11458387 -0.11578275 -0.05017367 -0.09084255 0.03604225 -0.09696359 -0.05853585 -0.05350311 -0.04931970 -0.09516978 -0.06989734 -0.09261069 -0.01586198 -0.08259504 -0.05768545 -0.06057754 -0.06942143 -0.02755379 -0.04712750 -0.03603211 -0.11819527 -0.04574463 -0.13243325 -0.03814386 0.00408008 -0.10107411 -0.01694002 -0.13128890 -0.03636244 -0.12797143 -0.13876601 -0.04838194 0.04286218 -0.10145447 0.00920030 -0.03301767 -0.07630276 0.02484900 0.03153018 -0.05604685 0.03642898 -0.03646426 -0.05158702 0.05054308 0.00848070 -0.03939572 0.08460989 -0.04698980 0.05727558 -0.03282021 -0.09922229 -0.04364938 0.14005533 -0.01797276 -0.06768455 0.04769715 -0.04166752 0.08181682 0.07885747 -0.03786512 0.02701591 0.01758379 -0.02237754 0.15563950 -0.09432378 0.02278617 0.06875910 0.00295229 -0.08595887 0.10843626 -0.13407980 0.08975632 -0.05112959 -0.02601716 0.00768622 0.10448907 -0.06118283 0.05646770 -0.02272762 -0.02285213 -0.05838220 -0.08751101 0.07542740 -0.02473721 -0.09482930 -0.04145923 -0.07696418 -0.05744008 -0.01241168 -0.00748360 0.02047957 -0.03940190 -0.06326352 -0.04820519 -0.02283978 0.00784786 -0.07950756 -0.05740605 -0.03466193 -0.01888845 -0.07143736 0.06146284 0.00771990 -0.10036931 0.01030498 -0.13148899 0.08699147 0.00949237 -0.05736358 0.04562889 0.05608721 -0.11947732 0.10688157 -0.08936767 0.02638097 0.06616095 0.06737158 -0.03186252 0.11949602 -0.12988719 0.02241170 0.02643820 0.02501656 -0.04611677 0.07258045 0.09023003 0.06868836 0.05999555 0.03514946 -0.06358443 0.00484356 0.04397606 0.07959531 0.06013017 0.03366579 -0.06557678 -0.05936438 0.03201748 0.09626226 -0.01515385 -0.07876954 -0.06247943 -0.05656024 -0.00044626 0.10222811 -0.02200362 -0.03845537 -0.10623444 -0.06024660 0.00081820 0.25084978 -0.12066323 -0.06868253 -0.14218982 -0.06237939 0.05206404 0.10013641 -0.10095999 -0.07666074 -0.09838603 -0.03418343 -0.03944347 -0.03221785 -0.11618108 -0.11965585 -0.04585423 0.01171185 -0.10040268 -0.01968748 -0.11373780 -0.05186976 -0.06349783 -0.14928927 0.00546860 -0.01006870 -0.05209678 -0.05621105 -0.06384294 -0.18233909 -0.02682143 -0.08268408 -0.08291146 -0.00715105 -0.01495688 -0.02056955 0.00755125 -0.12626363 -0.04118744 -0.03265990 -0.07900111 0.04808920 -0.00557922 -0.03762689 -0.00043554 0.02831972 -0.06870289 0.02114543 -0.04798277 0.00985769 -0.00780017 0.03345758 -0.00712634 -0.01040448 0.05268811 -0.00781654 -0.05274851 -0.04114582 -0.03139874 0.02153915 0.00234886 -0.06092304 -0.01736487 -0.03186430 0.02383807 -0.03415789 -0.01662694 0.02396498 -0.02864280 0.06078311 -0.04774089 0.03227719 -0.05997742 0.00536494 -0.02414515 0.05857123 -0.06750414 0.07803838 -0.08421568 0.00243240 0.01413187 -0.07033942 -0.07622381 -0.05468442 0.03018492 0.04746427 0.12898467 -0.08061960 -0.04423591 -0.03610194 -0.09124083 -0.09409454 -0.07314820 -0.01851588 0.04766205 -0.01530153 0.03022617 0.03536640 -0.05806911 -0.02392353 -0.04604616 -0.03712134 0.01565758 0.05275534 -0.05835570 -0.06779781 -0.01991880 -0.02682614 0.07941832 0.06807782 0.05781190 -0.01527343 -0.00851953 0.02110980 0.03408219 -0.05183740 -0.01911685 0.02870395 -0.03547191 0.01260157 -0.03057407 -0.15762039 0.00930960 0.00831845 -0.07417949 0.08482485 -0.18519281 -0.19330576 -0.05934953 0.00349582 -0.04039858 0.02682615 -0.11987253 0.07599260 -0.02730354 0.03357227 -0.03260101 -0.02803515 -0.06122891 -0.02958184 0.04828276 -0.02158124 -0.05505988 -0.04896697 0.01487138 0.14045429 0.00220115 -0.02576040 -0.12956232 -0.03487283 -0.05929894 0.24416804 -0.08281235 -0.03994513 -0.10081999 0.03654116 0.02198722 0.02150472 -0.10326927 -0.09102060 -0.01052526 -0.05129524 0.03788576 0.04627758 -0.09871170 -0.11047050 -0.00183554 -0.01421549 -0.15813740 -0.02577925 -0.10655041 -0.09643216 0.03976725 -0.11518811 -0.11551365 0.06876998 -0.08758185 -0.02313543 -0.04991945 -0.14988685 -0.11709510 -0.04290271 -0.09184456 0.00576069 -0.05901851 -0.05287916 -0.06397073 -0.09606687 -0.03313800 0.03320858 -0.01720433 -0.03913229 0.01715386 -0.07719381 -0.00174648 -0.08562348 0.04913791 -0.02061568 -0.01475029 0.05387998 -0.03407740 0.04346918 -0.03232217 0.02138214 0.02458252 -0.01750824 -0.09546477 -0.01423313 -0.09100470 0.05008487 0.09688900 0.01264700 -0.00910481 -0.04220638 -0.06447095 -0.01865154 -0.02588213 -0.00417499 -0.03256911 -0.04568154 -0.00630777 0.00436114 -0.05541364 0.00908111 0.01154426 -0.11681359 -0.09792885 0.05620207 -0.09273633 -0.02837768 0.07840874 -0.00456100 -0.05300246 0.03577518 -0.03627727 0.06861588 0.00633945 -0.01571256 -0.08124574 -0.03329090 -0.00681401 0.02359527 -0.11940487 -0.00444872 -0.04306048 -0.03308460 -0.09481005 -0.09848773 -0.08916804 0.03373859 0.00183370 -0.06645203 0.00303875 0.05792831 0.01135574 -0.06085652 0.02676208 -0.08395636 0.02356619 0.06657837 -0.03473023 -0.08643240 -0.03330246 -0.02553976 -0.02108170 -0.04008337 -0.09407695 0.01098833 -0.06463429 -0.06236514 -0.04059413 -0.14291190 -0.05366551 -0.03598212 -0.08101234 -0.04127341 -0.02590343 -0.06116635 -0.03354957 -0.02881139 -0.12263419 0.03894059 -0.09876844 0.02506238 -0.01203585 -0.01737235 -0.07480764 0.04823556 -0.00990677 -0.00107678 -0.06087006 -0.04321738 -0.04442590 0.09674039 -0.03166141 -0.00836890 -0.01285565 0.01557858 -0.05817677 -0.00471835 -0.08986440 0.15966137 -0.01135108 0.00548079 -0.05967078 -0.00085619 -0.11453620 0.10238213 -0.07409812 -0.13862073 -0.15132681 -0.05705139 -0.09875738 0.05846222 -0.09688137 -0.15981269 -0.00884787 -0.14609872 -0.06690110 0.11247559 -0.14162739 -0.16639136 0.02559348 -0.13505052 -0.15846319 0.06619815 -0.12676467 -0.00988758 0.02656332 -0.15085599 -0.11185770 -0.03490621 -0.05753735 0.00848945 -0.12811236 -0.12625401 -0.10849122 -0.15507610 -0.07215610 0.00135103 -0.09910633 -0.00872044 -0.05868853 -0.12351230 0.00108121 -0.05057877 0.02535559 -0.04961337 0.03663217 0.01979477 -0.01360066 -0.06055074 -0.05372378 -0.06255551 0.01867380 0.04658191 0.00227171 0.10958716 -0.14820388 0.02171683 0.01338895 -0.04831717 -0.05120635 0.01737505 -0.14855109 0.04391612 0.08211800 0.00368770 -0.01251405 -0.07751767 -0.04704446 0.00128193 -0.09103238 0.01650275 -0.04675588 -0.09976581 -0.02997937 -0.03670405 -0.08664017 -0.01840951 -0.10040586 -0.13417488 -0.12164605 0.03390280 -0.08132441 -0.11059455 -0.08244929 -0.07968841 0.00705914 0.01054305 -0.01511247 0.03600898 -0.06479131 0.04961894 0.01071377 -0.06881578 -0.00850598 -0.02948059 -0.05730709 0.00297780 0.02761878 0.00965070 -0.04736911 -0.10371966 -0.08842372 -0.03146945 0.01691506 0.05577048 0.00388741 -0.03605996 0.04228416 0.02658652 0.03717129 -0.02228238 -0.00384420 0.03323088 -0.04610017 -0.01416653 -0.09240577 -0.08172330 -0.00745058 -0.03279253 -0.00362585 -0.03424064 -0.06521177 -0.03767978 0.03330434 -0.04050761 -0.06277759 -0.01793979 -0.05671711 -0.03916810 0.01974182 0.04324881 -0.06029124 -0.04308784 0.05494950 -0.02281064 -0.10522510 -0.02607554 -0.05498250 -0.08894785 0.03904942 -0.05152980 -0.02205186 -0.07836913 -0.05601668 -0.03077363 -0.03236986 0.03993729 -0.03742116 -0.01173371 -0.05039150 0.00973987 -0.03221760 0.02181850 -0.03786125 0.05408369 -0.10358335 -0.02109469 -0.13790250 -0.03704194 -0.08628572 0.09058873 -0.09858611 -0.07302158 -0.11264843 -0.14253931 -0.07108948 0.09215768 -0.16404803 -0.08767896 0.01025996 -0.16124286 -0.10144802 0.04359661 -0.14933501 -0.15273701 -0.08789125 -0.19334100 -0.16270489 -0.09343500 -0.03945547 0.01850593 -0.09550259 -0.10237359 -0.11558039 -0.15240978 -0.05735970 0.02741331 -0.06463896 -0.01266920 -0.08757185 -0.10246217 -0.07629688 -0.00254516 -0.02901661 0.03654782 -0.10345517 0.01496833 -0.00438530 -0.01520806 -0.08419436 -0.09276143 0.00209792 -0.00323809 -0.02627780 0.00048685 -0.13087553 -0.06972594 0.06939646 0.00974153 -0.01084483 0.11908574 -0.14287123 0.00337772 0.03898917 -0.04411057 -0.07512897 -0.11723832 -0.06827708 -0.06542803 0.04711350 0.04798475 -0.13455701 -0.13321276 0.05402634 -0.10539965 -0.03200356 0.01221830 -0.13967732 -0.14199841 0.06319810 -0.11515301 -0.04811916 -0.16856748 -0.14163114 -0.00778159 0.08298209 -0.04590215 -0.04329135 -0.12592328 -0.08874293 -0.04372558 0.03890426 -0.07274637 -0.04699202 -0.04359071 -0.03300545 -0.11634016 0.03347806 -0.05067774 0.01456927 -0.03554867 0.00246566 0.03301614 0.02465231 0.00806319 -0.01634897 -0.04165091 0.04324177 0.00920573 -0.00974519 0.05990532 0.00882661 0.01571913 0.03519633 0.02396174 -0.02385622 0.02789682 0.00150017 0.04701913 0.01794126 0.04504656 -0.09535194 -0.02169828 0.00476859 0.01638796 -0.05539047 -0.00320488 -0.05291297 -0.05243000 -0.05976932 0.14493565 -0.00148250 -0.05599161 0.07880428 -0.01884954 -0.00995517 0.04716231 -0.03749628 -0.09538516 0.02297397 -0.06507024 0.01497992 0.03156208 -0.04103864 -0.02606789 0.03610682 -0.00800932 -0.07787589 0.01215032 -0.05108817 0.00102711 -0.00928080 -0.07102566 -0.03325973 -0.04142497 -0.03996482 -0.05284926 -0.07413761 -0.04007803 0.00387689 -0.01595980 -0.11562174 -0.06525532 -0.15923223 -0.08444365 -0.06861196 -0.02489268 -0.07442618 -0.05705783 -0.00424067 -0.14810097 -0.09026141 -0.04657636 -0.06763626 -0.18047923 -0.00042225 -0.24264307 -0.09401128 -0.01367070 -0.11518236 0.00592871 -0.08471765 -0.22088234 -0.08327488 -0.06057784 -0.00436514 0.04885125 -0.10303870 -0.06066450 -0.10345644 -0.17929912 -0.07053182 -0.06202918 -0.05255020 0.02120667 -0.04808357 -0.02959467 -0.07962453 -0.04086908 0.18698078 0.01915918 -0.04408180 0.01044689 -0.02064517 0.00397973 -0.02181465 -0.01864269 -0.08196547 -0.02926235 -0.03299638 0.04835534 -0.09870642 -0.04454670 0.02905380 -0.00226374 -0.06625018 0.03566980 -0.03358322 -0.04212977 -0.06020072 0.01731339 -0.06913632 -0.09896757 0.00994130 -0.10729158 0.04692428 0.03506177 -0.05611976 -0.09969014 -0.00269909 -0.22057764 0.03794265 -0.06853949 -0.11314528 0.01431875 0.07817560 -0.12664841 0.00888313 -0.13689059 -0.04217859 0.06220084 0.04504812 -0.00698429 0.09061584 -0.06699337 0.00673882 0.01529028 0.02776838 0.00906994 0.02824004 0.00078300 -0.01930871 -0.00667314 0.01785631 -0.06563065 0.05582236 -0.00077453 0.02893212 0.02036348 -0.01642527 -0.03687225 0.06082531 0.00589318 -0.00807094 -0.03592344 -0.01918713 0.01253385 0.04004538 -0.00809938 0.04434452 0.01092174 0.01796875 0.02274424 -0.04284656 0.02669436 0.06729760 0.01926936 0.05297035 0.03661989 -0.03175170 0.03162974 -0.04396997 0.01449776 0.06390768 -0.05183603 0.01203816 0.14410241 0.02445611 -0.04324003 0.10704247 -0.04491262 0.00833093 -0.01709623 0.01272022 -0.01092811 0.11706126 -0.05606417 0.02978333 0.07124456 0.01224036 0.05625391 -0.00308277 -0.02816090 0.04416532 -0.06332172 -0.00188786 -0.02428293 -0.04284577 -0.03088997 -0.04704856 0.01749019 -0.04640410 -0.04284358 -0.07956463 -0.08767795 0.03042593 0.09958021 -0.06959444 -0.05172718 0.06910184 -0.09666211 0.06185649 0.06119141 -0.09565654 -0.16493303 0.07380506 -0.14061357 -0.03605969 -0.00894754 -0.08815365 -0.06784041 -0.05739628 -0.21571171 -0.01843370 -0.03309160 -0.02304813 0.02145923 -0.04556866 -0.06890998 -0.06550556 -0.13506965 -0.04092121 -0.02854472 -0.01381088 -0.02715153 -0.08661787 -0.08159946 -0.04553571 -0.09672344 0.09516384 -0.10104129 0.02639220 0.03164716 -0.02318892 -0.08441229 0.05917296 -0.02610470 -0.08933993 0.00180577 -0.04439137 0.03374850 0.02578196 0.00017820 -0.03981521 0.03485497 -0.03042534 0.09781411 -0.11724407 -0.05138846 0.05768654 0.05899170 -0.04129297 -0.02289799 -0.03761346 -0.04926675 -0.09514208 0.08901945 -0.07546074 -0.08932909 -0.10736303 -0.14717725 -0.01895937 -0.04215017 -0.06093036 0.03492764 -0.10587193 -0.07176604 -0.02356770 -0.09455912 0.05435879 0.08976972 0.08770414 -0.04270573 0.05775554 -0.01574427 0.02012935 0.02128479 0.09426057 -0.02717067 0.07404809 0.03198034 0.03083597 0.02324347 -0.01648297 0.06781004 0.05491953 -0.02524449 0.02421478 0.01165984 0.02522725 0.01695925 0.02283976 0.00899591 0.07178699 0.01242896 -0.01142165 -0.03781503 0.00595810 0.03912466 -0.02590493 -0.01421785 0.00102501 -0.01380253 0.03455786 -0.03303700 -0.00282971 -0.03732625 0.01364724 0.01927287 -0.01489622 0.01813488 -0.02170351 -0.03206331 0.07766417 -0.06563386 -0.02065345 0.10421608 0.03973651 -0.04503112 0.14533079 -0.10187054 0.01217262 0.04673016 0.04905068 0.02954762 0.11872793 -0.07104903 -0.02903681 0.02697062 0.04336780 0.06091542 0.09451357 -0.03768299 -0.03771193 -0.04570735 0.05901479 0.01217636 -0.02710381 -0.07046334 0.03678677 -0.07641863 0.00513219 -0.02642027 0.05108997 -0.03514059 0.02817106 0.08559747 -0.03262207 -0.01517632 0.14418709 -0.06700086 0.02224665 0.07506927 -0.05064887 -0.10691211 0.15588544 -0.14525607 -0.09566923 0.04322014 -0.07889667 -0.01645912 0.11669036 -0.03004661 -0.10530192 -0.06590223 -0.03986490 0.02443016 0.10636730 -0.08143465 -0.01837232 -0.08959664 0.00513327 0.04432620 0.07883590 -0.03456312 -0.01655461 0.02023745 0.02769163 -0.03517631 0.03454343 -0.00773530 -0.04985826 0.00765598 0.01348408 0.00945883 0.03770178 -0.05933437 0.00896954 -0.02920250 -0.01265534 0.02725905 0.05271591 -0.04505983 0.04026638 -0.05422700 -0.01101449 -0.05527614 0.02776362 -0.02435478 0.01725189 0.03970791 -0.03696292 -0.01728355 0.01911979 -0.01267926 0.00147475 0.10768627 -0.09011625 -0.02805387 0.05392749 -0.04297717 -0.05010736 0.00768729 -0.08013194 -0.04491665 -0.03417949 -0.06527950 -0.09403624 -0.08691774 -0.07580581 0.11810001 -0.06651240 0.02472872 0.06634323 -0.07009227 0.02844668 0.10662183 0.03804497 -0.00240676 0.08585662 0.02282106 0.06100102 0.08292460 0.13251168 -0.00267059 0.07848024 0.07524679 0.03469276 0.00495952 0.04587167 0.02980452 0.08681984 -0.01082436 0.08984801 0.02528855 -0.01385904 0.03119570 0.01973109 0.03960168 0.02023708 0.05088468 -0.03640061 -0.01114039 0.05117738 0.01481648 0.00935784 0.02506499 -0.02288943 0.01636799 0.03014180 0.01946317 0.01543658 0.01707789 0.01920976 0.02709428 -0.02605459 -0.00896962 0.01486674 0.00049486 0.04041532 -0.00192892 -0.01124130 0.04777825 0.01608045 0.04999169 0.08754478 -0.05233064 -0.03798202 0.06172637 0.03978691 0.03589316 0.07000423 0.01221714 -0.04084820 -0.08559013 0.07009098 0.12563716 0.17243940 -0.03252370 -0.07581043 -0.07085825 0.01544972 0.03299366 0.16279662 -0.01308749 0.01730350 0.09615384 0.07109658 0.00733553 0.15424530 -0.00450779 0.06311584 0.09680381 0.00338425 -0.05027310 0.12362402 -0.09720974 -0.03644763 0.07823803 -0.02061862 -0.05163936 0.17727321 -0.06839175 -0.02225113 -0.04154697 0.01463058 0.00679284 0.11740473 0.04575784 -0.03126134 -0.07195489 0.03991261 0.04428448 0.02489549 0.06333198 -0.05367161 -0.02082931 0.01540289 0.07942025 0.10897431 0.02990975 0.09604406 0.05924424 -0.01271273 -0.02900729 0.24504456 -0.03991042 -0.01505973 -0.05345543 0.00233647 -0.03603200 0.28266853 -0.03707043 0.03488958 -0.02010799 -0.01694253 0.00734935 0.09097400 -0.00587012 0.01827643 0.03614512 0.00544636 -0.02935293 0.05445613 -0.00381708 0.02113846 0.05084634 -0.06136112 -0.00938743 -0.07435506 -0.04912696 -0.03474411 -0.01062960 -0.09406658 -0.00491280 0.15691751 -0.08590018 -0.02651048 0.00337785 -0.05423690 0.02428658 0.15932353 -0.00433489 -0.01736565 -0.05437123 0.03467835 0.04108231 -0.00682980 0.03127567 -0.03464720 -0.04564999 0.08614013 0.12360292 0.16306037 0.08040380 0.09671897 0.05432117 0.06666888 0.12132358 0.06714680 0.05498747 0.11333940 0.10148434 0.16497061 0.09309203 0.05158973 0.05107170 0.06509961 0.11162481 0.01856933 0.03465031 -0.01455728 -0.00803002 0.06406341 0.01317218 0.03777560 0.02220294 -0.03810370 -0.00629800 0.04078683 -0.00087229 0.03873859 -0.02320203 0.01261409 -0.00673165 -0.03763764 -0.01066245 0.02718053 -0.02861902 0.01706654 0.05537114 -0.02481272 -0.01631475 0.01861796 -0.00460944 0.01535694 0.07348728 -0.02358330 -0.00518719 0.00450938 0.09202275 0.07238322 0.10847611 0.03968678 0.03678486 0.10212929 0.08780283 0.06624171 0.07121930 -0.03417150 0.14368968 0.13354379 0.16603051 0.04411100 0.09243066 -0.03835490 0.06070093 0.09068930 0.05722149 0.09582582 0.08961815 -0.00140893 0.11394762 0.05862710 -0.01336119 0.17754316 -0.00525249 0.08221454 0.14279398 0.01513769 -0.06108690 0.05757295 -0.06870975 0.08875243 0.12331321 -0.02021281 0.02815801 0.10658342 0.03588482 0.02778189 -0.08125021 0.05639079 0.07327151 0.09494348 0.10088672 0.08452343 0.01412051 0.04998357 0.03524049 0.16310427 0.08820605 0.10766506 -0.02230598 0.05814104 0.05850901 0.21916986 0.01429326 0.09668766 0.06292361 -0.01076682 0.02308784 0.28258377 0.02531225 0.06566698 0.06414067 0.02999332 0.02426345 0.02523222 -0.01295681 0.03937427 -0.02664807 0.02236994 0.02995942 -0.03074456 0.08186491 0.06946826 0.04822382 0.01847057 -0.03864203 0.10188817 0.03347994 0.10353242 0.05403875 -0.05156210 0.02045355 0.03034983 0.00593542 -0.02383245 -0.02258685 -0.10761399 -0.05351875 0.10208760 -0.05051921 0.03882584 -0.01399566 -0.05105662 0.02002302 0.05489034 0.06510083 -0.00706816 -0.01839311 -0.00628517 0.09957843 -0.03791311 0.03593457 -0.00258635 -0.03423642 0.02870871 0.15948592 0.05990919 0.04789717 0.18393289 0.04400342 0.24836065 0.06720684 0.07602736 0.01947274 0.12707417 0.14084178 0.07255665 0.06734141 0.06184267 0.06956962 0.05293055 0.05992169 0.04242893 -0.00063065 -0.00761676 0.01573753 0.01342182 0.05919108 0.01677770 -0.00873689 -0.00342038 -0.03043173 -0.00904039 0.03540494 0.04073209 -0.02155006 0.03731361 -0.02153202 -0.00630601 -0.01975154 -0.02026325 -0.02296942 -0.03046549 0.03177680 0.02029854 -0.01009354 0.00443450 0.00380865 0.01764644 0.07509524 0.02600829 -0.02605984 0.05716053 0.10010391 0.03629377 0.12955289 0.02861831 0.04985028 0.04164037 0.10446099 0.01598604 0.14010453 0.00108045 0.02504502 0.09310374 0.07356427 0.04174144 0.06679769 0.01896443 0.08186837 0.11796728 0.10933107 0.06338076 0.03951494 0.04887965 0.06103723 0.06709803 0.00702956 0.00693727 0.05186944 0.04152934 0.12157615 0.09559023 0.11335320 0.08237807 0.14839065 0.03449155 0.07015124 0.14801358 0.11963518 0.10022639 0.13332087 0.02518640 0.10819262 0.10023736 0.07135538 0.09147009 0.10480759 0.19616593 0.15571302 0.09030416 0.09871329 0.16336696 -0.01744797 0.05907797 0.14812259 0.05928271 -0.01387525 0.08623893 0.05475249 0.13689077 0.08261760 0.00191334 0.08376095 0.07640467 0.08994437 -0.07684156 -0.04501568 0.07526337 0.24332336 0.09861475 0.02777021 0.05733081 -0.01136934 0.09358597 0.01623645 -0.01112698 -0.02949657 0.01936110 0.17466158 0.06069540 -0.04661941 0.09565004 -0.07333987 0.21937592 0.14314356 0.00487223 -0.05958318 0.01889817 -0.11677860 0.14054409 -0.09535085 -0.06781462 -0.04209663 0.04628871 0.00200665 0.06739521 0.04263770 -0.01732176 -0.00072102 0.02943463 0.00473309 -0.04481863 0.01426213 -0.02496476 0.16458157 0.00606299 0.15793900 -0.03045409 -0.01601288 0.08036702 0.21444708 0.03843893 0.07125667 0.12719019 0.18796249 0.12496646 0.06376112 0.03705706 0.07092373 0.06220512 0.17737068 0.12047604 0.06466025 0.08575848 0.03118414 0.08217634 0.09960701 0.00913943 0.03302529 -0.01271882 0.03063961 0.01339104 0.02834747 0.01283244 -0.01298260 -0.02984706 -0.02665534 -0.00211620 0.03318362 0.02575360 0.03281875
-0.03021395 0.02702356 0.00065268 -0.04059721 -0.02144370 -0.03320304 -0.11495237 -0.01725778 0.00471644 -0.12718682 -0.13491398 0.00145389 -0.18812135 0.01089572 -0.11517575 -0.03141699 -0.13962300 -0.11883187 -0.17548263 -0.02030259 -0.19432706 0.01063146 -0.10678631 -0.12909043 -0.08468074 -0.10113113 -0.13183394 -0.07606501 -0.05266138 -0.10062434 -0.06850021 -0.05347077 0.03007413 -0.06783239 -0.02355452 -0.07922173 0.01131698 -0.02772310 -0.11549099 0.09494679 -0.00787586 -0.08826796 0.07689676 -0.03420832 0.05710139 -0.00370127 0.08005580 -0.04021562 0.03967141 -0.11155725 0.11891271 -0.07159854 0.03025465 -0.01031267 -0.02222264 -0.01362439 0.02359988 -0.03137442 -0.03787851 -0.13129570 -0.02080140 -0.02700745 0.03073763 0.01115733 -0.02841911 -0.07558221 -0.05111699 -0.02104884 0.01058136 -0.01328999 -0.08138944 -0.08692121 0.06148266 -0.05430427 -0.04706654 -0.14460272 -0.04540267 -0.04673959 0.00205037 -0.05100361 0.01807327 -0.02623343 -0.03259832 0.06780701 0.00208100 -0.10899973 -0.01835570 -0.16032621 -0.03194565 0.00036704 -0.05654619 -0.10951631 -0.04136093 -0.00809567 -0.00768908 0.03827513 -0.06231523 -0.01631744 -0.02208737 0.01992689 0.01809027 -0.12550710 -0.22163479 -0.04118929 -0.09763993 0.05579469 -0.11769851 -0.02626911 -0.22139584 0.02426791 -0.17040415 -0.08062613 -0.20989016 -0.13676190 -0.30594042 -0.03700338 -0.21199511 -0.16891055 -0.11435731 -0.17741823 -0.23097108 -0.06277566 -0.20412061 -0.19327505 -0.15827742 -0.19808660 -0.17831667 -0.11519882 -0.13804848 -0.06704165 -0.20679417 -0.14980589 -0.09639630 -0.00020023 -0.21298893 -0.13103531 -0.09106976 -0.06951278 -0.04377069 -0.07302471 -0.14021151 -0.16321523 -0.04970532 -0.00602476 0.03905534 -0.02195048 0.00079769 -0.00997949 -0.02442714 0.01053559 0.02198866 0.04530880 0.01587857 -0.05682087 0.04477384 0.00983664 0.11584742 -0.03138142 0.02993112 0.06237383 0.11483423 -0.02631233 -0.12535869 -0.01599366 0.10249308 -0.17759173 -0.13187976 0.11215907 -0.16709149 -0.01858781 -0.10607339 -0.06011236 -0.20078994 -0.14750476 -0.15347342 -0.07709094 -0.19272213 -0.09388775 -0.15627001 -0.12826011 -0.16491589 -0.05291306 -0.22540444 -0.16066507 -0.12969378 -0.08346994 -0.21564458 -0.03285217 -0.13277611 -0.18585899 -0.14975037 -0.04328680 -0.21429327 -0.01174577 -0.20457745 -0.20095427 -0.26218948 -0.02558384 -0.15653986 -0.01349993 -0.30548874 -0.11293943 -0.09683873 -0.08198440 -0.16379397 -0.18172716 -0.21713434 -0.11343572 -0.12352824 -0.08517916 -0.14303079 -0.24355233 -0.15122528 -0.07552541 -0.10921175 -0.13593227 -0.11658373 -0.22895245 -0.14350945 -0.03896865 -0.03866545 -0.04017896 -0.10382682 -0.17310798 -0.08531873 -0.18180554 -0.07987396 -0.08818618 -0.04438029 -0.02886293 -0.07614233 -0.10993987 -0.02619335 0.00659059 -0.04838483 0.07765577 -0.05899711 -0.22365621 0.04472166 0.03772587 0.01085984 -0.00637887 0.03769943 0.03757482 0.07581145 -0.04557765 0.07098681 -0.02906683 0.16023205 -0.20689365 0.08565746 -0.11160089 0.00120001 -0.10236616 0.15016827 -0.13271937 0.00255922 -0.09064670 -0.04419030 -0.08888599 0.07845446 -0.10059571 -0.01764316 -0.14679338 -0.02385931 -0.13152619 0.03501976 -0.04711783 -0.10229748 -0.10711997 -0.08208775 -0.04502444 -0.05118985 -0.36275578 -0.07924262 -0.08730424 0.02667467 -0.09990954 -0.04793366 0.00791707 -0.04361431 -0.10788428 0.07638256 -0.16268890 0.06003406 -0.25811264 0.00773493 -0.14484784 0.08974418 -0.04394882 0.13065861 -0.12622572 -0.06318413 0.10154257 -0.00182912 0.04964515 -0.00474641 -0.10873543 -0.11415772 -0.07830527 -0.06440467 -0.00110722 -0.00116546 -0.15556328 0.00386619 -0.01672192 -0.01609190 0.07218415 -0.02266215 0.02648048 0.00593467 -0.04860257 0.14086340 -0.04052571 -0.01704361 0.05402100 0.08782000 0.00073703 0.03869879 -0.11622878 0.15767643 -0.01964503 0.02462002 -0.14716348 -0.09616172 -0.17772850 0.07761129 -0.04329434 -0.11031710 -0.19468462 -0.11570425 -0.16105117 -0.12946023 -0.05545809 -0.11630640 -0.11999692 0.02162664 -0.06592458 -0.12706332 0.02773813 0.01008688 -0.13038932 -0.06166386 -0.05990870 0.10269530 -0.14534828 -0.04700076 -0.14535931 -0.16273819 0.04268413 0.03916213 -0.08905865 -0.11658874 -0.19192795 -0.15287761 0.03204741 -0.04514185 -0.09153856 -0.10486567 -0.03295843 -0.10103157 0.02113497 -0.16254896 -0.10912926 -0.04529352 -0.16717628 -0.04422737 -0.07761032 -0.04955378 -0.08953004 -0.08329532 -0.18336716 -0.02672638 -0.06740441 -0.02789792 0.01960513 -0.06727690 -0.03429903 -0.04097803 0.02263885 0.04863358 0.08067154 -0.04569370 -0.03522673 0.00840897 0.10575227 0.05256478 -0.21063866 0.02809089 -0.05429679 0.04181650 0.15538825 0.04720283 -0.06777968 0.00080063 0.06451784 0.04548872 -0.01638660 0.04852840 -0.43974638 -0.03605531 0.00890826 0.07574252 -0.05787383 -0.00681883 -0.05673955 0.04744964 0.03604275 0.08065078 0.10920662 0.05336701 -0.17059633 0.01779785 0.00393555 -0.00634207 -0.01195991 -0.01121535 -0.19069642 -0.03440667 -0.04792628 -0.02431173 -0.13540785 -0.01443873 -0.24390247 -0.01825151 -0.13726245 -0.00602437 -0.15710989 0.03233451 -0.14304453 0.02197432 -0.09585207 0.08472189 -0.12916173 0.03140636 -0.21628772 0.03962509 0.00295941 0.01621735 -0.09995840 0.04189782 -0.29952988 0.00954530 0.05205872 0.04264670 0.02182390 0.02869615 -0.13787755 0.04990010 -0.01240591 0.04594290 -0.06036916 0.02274244 -0.00331446 0.04482258 -0.08004364 0.01118211 0.04035878 0.01900896 0.01885777 -0.05026829 -0.00588371 -0.04557501 -0.02528940 -0.00536710 0.06397843 -0.03905581 0.00408491 0.08980113 0.08147393 0.00227789 -0.01750058 -0.00170996 0.09535716 0.08213424 -0.09798945 -0.09340290 0.07902926 0.05625222 -0.07780458 -0.04697046 -0.24591033 0.08211730 -0.00756239 -0.01811528 -0.15955371 -0.03244352 -0.14983374 0.02187699 0.01654055 -0.02937929 -0.15832913 0.02380005 -0.06194204 -0.15628591 -0.12714753 -0.01410453 -0.04946148 -0.02930413 -0.05870325 -0.13872439 -0.10849675 -0.08696341 0.01369556 0.03628318 0.06136983 -0.10116665 0.03164407 -0.08174749 -0.15356325 0.01419536 0.02136515 0.00190459 -0.13705851 -0.07730900 -0.08839534 0.00785100 -0.13553120 -0.08601233 -0.18919598 -0.09044429 -0.04041890 -0.03059868 -0.04050239 -0.14199936 -0.06956743 -0.03704197 -0.09716614 0.06880235 0.08055156 -0.10780871 -0.29690796 0.00840755 -0.06706557 0.13170403 0.07284304 0.04073776 -0.15714560 0.00394226 -0.04172315 0.07094329 0.05919028 0.10752323 -0.25988612 0.01748969 0.05803800 0.03234175 0.17792091 0.02013892 -0.14174743 -0.05731822 0.04971309 -0.06009174 -0.00016312 0.03425807 -0.32596901 0.02990355 0.00196136 -0.02542349 -0.03506294 -0.06340896 -0.23491150 0.02422930 0.04784256 -0.07355312 0.21934235 -0.03694442 -0.13444157 0.00649242 -0.03725313 0.03958456 0.11763814 0.09279192 -0.03380222 0.01298897 -0.01533069 0.07170324 0.03236430 0.09325433 -0.15994915 0.03130965 -0.05984193 0.01507579 0.06581750 0.04864109 -0.10434283 -0.02674896 0.04661918 0.00848598 0.05018575 0.07042421 -0.24405275 0.05105254 0.04147799 -0.04364251 0.02389386 0.07188641 -0.26318154 -0.00805890 0.01132308 -0.11236515 -0.06106151 0.01962996 0.02584957 -0.03787943 -0.07285658 -0.08087001 -0.09864774 -0.08742037 0.05908131 -0.02117050 -0.08969872 -0.02355134 -0.11622900 -0.03300526 -0.00851489 0.01446913 0.00475421 -0.05057818 -0.01218272 -0.01201043 -0.02900421 -0.10814592 -0.09088384 -0.07304738 0.12961972 -0.05151936 -0.12822051 -0.09745916 0.09302080 0.06458479 0.00650128 -0.16886440 0.11698782 0.08531156 0.17334002 -0.02878512 -0.08395803 -0.08366869 -0.02665048 0.00503171 0.09317683 -0.07286463 -0.06286103 -0.01695436 -0.13259336 -0.09397399 -0.04828063 -0.04711772 0.07470765 -0.09296808 -0.01850986 -0.04313517 -0.00810191 -0.04022079 0.12709454 -0.09176038 0.04563358 0.00470094 -0.02311538 0.04121897 0.03984217 -0.04765716 -0.12948667 -0.03489459 -0.05896335 0.09730428 0.03100800 -0.16924021 -0.06325321 -0.02954172 -0.10179850 0.06323291 0.13318709 -0.09144171 -0.07933978 -0.04231105 -0.01509882 0.12708008 0.13964835 -0.13253967 -0.08447021 0.01439649 0.00771686 0.07607456 0.12454519 -0.21082070 -0.29260859 -0.00389414 0.01651271 0.03197968 -0.00094872 -0.17654818 -0.23443693 0.02404406 0.09745353 -0.00428620 -0.01381780 -0.02025372 0.08687022 0.04182098 0.04452484 0.01571155 -0.00483195 0.13724332 -0.21289480 0.02782189 -0.05319109 0.00897264 -0.00912864 0.14292064 -0.16253142 0.02057868 -0.05432273 0.06282169 0.11767107 0.11896598 -0.15725283 0.00111372 -0.00136575 0.07261405 0.09371036 0.12156763 -0.10956738 0.00885808 0.05201894 0.02711112 0.01857369 0.06815802 -0.10541575 -0.02724150 0.03519188 0.01726623 0.06070697 0.10330738 -0.08672179 0.01707432 0.05586156 0.06320561 0.05984285 0.01722233 -0.25097048 0.05704716 0.01433923 0.01124354 -0.01480840 0.07106184 -0.12088102 0.02898948 0.01896632 -0.01511178 -0.04283847 0.01981231 -0.00633686 0.03216681 -0.10015887 -0.06807780 -0.06106072 0.09059295 0.01114569 -0.05344235 -0.11926411 -0.03254079 -0.01372376 -0.02045964 -0.08219108 -0.05181154 -0.10005040 -0.04936067 -0.12677521 0.02855514 -0.06586716 0.01609266 -0.04394681 0.09154025 -0.06911690 0.15828857 0.11015706 0.00071935 -0.10647866 -0.07587243 0.02625792 -0.14179371 0.04898094 -0.05410251 -0.15525794 0.11289889 0.05703623 -0.09908096 0.03516987 0.08537115 0.08580230 -0.00346863 0.12951522 0.02464656 0.02679530 0.01063801 0.03184036 0.01938194 0.07027078 0.06355960 0.12610584 -0.00267857 -0.04203803 0.05482757 0.18483709 -0.04003445 0.02927060 -0.01570071 -0.10654402 0.09875607 0.15151319 -0.00271490 -0.33874688 -0.07560881 -0.04416612 0.13351020 0.11488011 -0.07598717 -0.04319844 -0.05119217 -0.05172595 0.14375903 0.04215115 -0.31138361 -0.23235069 -0.01080080 0.00673102 0.08322269 0.08095208 -0.31422260 -0.00668144 0.04895731 0.05110819 0.13179018 0.12040440 -0.32328439 -0.27887321 -0.01361701 0.04305685 0.12775379 0.18143064 -0.32091272 -0.14071091 0.07324246 0.07694327 0.08634797 0.17497671 -0.15549697 -0.18505248 0.05267062 0.01412650 0.08945236 0.14713494 0.00919969 -0.06152957 0.07204631 0.04990540 0.17544691 0.13764516 0.11302708 -0.02361457 -0.00795270 0.00064734 0.12601869 0.09346168 0.18266881 -0.13009840 0.06623604 0.08403821 0.13144054 0.15544714 0.11419486 -0.10118777 0.03862362 0.10967924 0.05655376 0.10174369 0.12914903 -0.09335867 -0.00210049 0.09153686 0.02241996 0.10458807 0.11593959 -0.25419128 0.04069340 0.04341058 -0.03857096 -0.04642471 0.15115888 0.06239521 0.06583706 0.07886973 -0.05927564 -0.09341241 0.09925735 -0.17623603 0.04953925 -0.06683633 -0.05279518 -0.06243626 0.14251336 -0.09701992 0.04573975 -0.04075437 -0.08762114 -0.06454873 0.08644600 0.08971418 -0.02319838 0.06504801 -0.07182237 0.00807998 0.00644515 -0.01620053 -0.06164564 -0.00822105 0.02217029 0.02626462 -0.04200264 -0.03845901 0.00226676 -0.05868665 0.00009550 -0.02936146 -0.01401108 -0.11296358 -0.00232816 0.12011996 0.11148208 -0.11344525 0.05047990 0.18081704 0.03412804 -0.00617104 -0.01382609 -0.09731459 -0.05177516 -0.04787568 -0.02552658 -0.08231817 -0.01853498 0.16294350 -0.01841552 -0.10904530 -0.01693201 0.07891539 0.04740642 0.02347718 -0.12256192 0.04807448 0.06492463 0.05022785 0.08756863 -0.05167320 -0.11205886 0.11629482 -0.02592157 -0.01715973 0.14921089 0.02235921 -0.18612388 -0.10267557 -0.02031453 -0.04868961 0.02325274 0.02957606 -0.12771139 0.00056059 -0.00206715 0.06357275 0.02218687 0.07047347 -0.14965414 -0.00414871 -0.02549873 -0.00429029 -0.03100807 0.07644064 -0.17525765 -0.06150362 0.02144930 0.03584028 0.06348727 0.14052734 -0.38452080 -0.00914552 -0.01294859 -0.02262442 0.11027074 0.16282946 -0.32256937 -0.07845177 0.07192492 0.01128000 0.13497356 0.14153376 -0.18343626 -0.06401508 0.03315647 0.10151409 0.15915756 0.15241727 -0.21073300 -0.09910258 0.00812861 0.01972058 0.18602666 0.14500405 0.04526897 -0.12647380 0.05645701 -0.01843562 0.11642574 0.13432319 0.15294683 -0.05914914 0.01618374 0.10022864 0.00487509 0.16052870 0.10152633 -0.06593064 0.04892191 0.10634086 -0.08246192 0.14427327 0.15409802 -0.04277768 0.01181103 0.00373421 -0.12712826 0.01899084 0.12406964 -0.07803153 0.04066718 -0.03433434 -0.14355563 -0.11799578 0.01758732 -0.15749180 0.00028171 0.00666900 -0.11919456 -0.11425419 0.07071198 -0.04431619 0.00061821 0.03358374 -0.10453030 -0.10111534 0.06673782 -0.11010554 0.02576147 0.00317310 -0.02818709 0.00417014 -0.06306491 -0.04839894 0.00845597 -0.00050688 -0.03342967 -0.04573233 0.02561773 -0.00570169 0.00105192 0.03371227 -0.00922881 -0.12480580 0.07653736 -0.02455978 0.00478881 -0.05794999 -0.07545128 -0.04405960 -0.00925559 -0.05049505 -0.07907783 0.02056751 -0.03993411 0.10581654 -0.09799112 -0.11938746 -0.01116553 0.01610719 -0.02212487 -0.08174583 0.06029167 0.13843904 0.02935551 -0.04539281 -0.06257396 -0.11558691 -0.16666998 -0.22299705 -0.14936432 0.02230991 -0.04850202 0.08363949 0.08812858 0.07183260 0.02694791 -0.02659131 -0.02416488 0.06738715 0.17597049 -0.06570330 -0.03216253 0.06500526 0.01791913 0.00346617 -0.14964907 0.12911731 0.00232532 -0.03551114 0.01909935 0.16219716 -0.26006520 -0.08367246 0.02212901 0.01477440 -0.02794371 0.13235772 -0.24992615 -0.05556618 -0.00321456 0.00112152 0.05589771 0.10870276 -0.26779979 -0.01953978 -0.01715180 -0.08464039 0.05305263 0.06314300 -0.23551881 0.02262967 0.01695951 0.03835535 0.08363552 0.09015256 -0.36377186 0.02995276 0.04303931 0.04847710 0.07482454 0.13655232 -0.31911907 -0.04592643 -0.00769173 0.08551290 0.08789584 0.15141714 -0.19623244 -0.02115352 0.02924147 0.01178815 0.12575933 0.18245266 -0.19875869 -0.09991368 0.06819081 0.05086286 0.14819628 0.14187498 -0.07849517 -0.04878233 0.01349882 0.09852397 -0.05148420 0.10056061 0.19372533 0.05760913 0.01124214 0.03440174 -0.12363790 0.02066302 0.12734587 0.10899667 0.04533007 0.02030097 -0.15949614 0.02220647 0.17010893 0.16331820 -0.01971456 -0.01210967 -0.10294699 0.00699086 0.21383645 -0.04678209 -0.00122650 -0.06157379 -0.12536560 -0.00481835 0.09733106 -0.08631484 0.00553138 0.03231367 -0.14806166 -0.03091003 0.04161664 0.00779071 0.01389590 0.04239737 -0.13374029 -0.05035434 0.05044304 0.07251985 0.03533343 -0.00770984 -0.09844664 -0.07549142 0.06789405 0.08570308 0.05971278 0.00300890 -0.01716772 -0.05645080 -0.05740510 0.04631650 0.01322286 -0.01161631 -0.07731949 -0.04324720 0.01548730 0.03411765 -0.05510289 -0.01575251 -0.02930348 0.09545090 -0.00365584 -0.02428625 0.01726962 0.02470367 0.07239219 0.03706303 -0.01474288 0.01949807 0.03073687 -0.00546406 0.17318848 -0.02496847 0.15690336 0.03820864 -0.01862932 0.06492229 -0.03722109 0.09495581 -0.04402893 -0.14333564 0.06362834 -0.00425572 0.02427958 0.01158294 -0.00723805 -0.01875098 -0.06220653 -0.02660104 -0.12330180 0.16696750 -0.07832526 -0.04090058 -0.10749143 0.03410610 0.03636541 0.08899051 -0.07292467 -0.03324816 -0.01026833 -0.03758376 -0.07247619 0.00497227 -0.13198018 -0.10010535 0.02286096 -0.04598029 0.00969973 -0.00195098 -0.04998109 -0.08343795 -0.01293511 -0.02272063 0.02704704 0.02566102 -0.01683811 0.20738167 -0.06427514 -0.08936441 0.01354032 -0.01764591 -0.15070160 -0.00871352 0.01719037 0.06975272 0.07129481 0.06467947 -0.11931827 0.07406545 0.00577570 0.00193769 0.06452702 0.17606121 0.00004306 -0.02546916 0.05749661 0.11437992 0.15500520 0.26680768 0.07289720 -0.09327029 -0.00380429 0.03388967 0.19018997 0.28043956 0.10599484 -0.08181763 -0.02615315 0.03811511 0.09483056 0.15116255 0.14517739 -0.11343351 0.06813765 0.02745280 -0.02821947 0.11335760 0.05637658 0.00069178 -0.04737896 -0.00433238 -0.00235424 0.04075847 0.10005343 0.08187045 -0.02435684 -0.02596789 -0.01532008 -0.07655386 0.15700631 0.17650561 -0.02970763 0.00856396 -0.01410548 0.00544921 0.06307325 0.09497336 0.01560522 0.01914160 -0.06818239 0.00420153 0.11732625 0.07766765 -0.01854826 0.07861286 -0.05431060 0.04046047 -0.00345377 0.06520688 -0.00848844 0.03886176 -0.12949903 0.01103336 0.03207959 0.15697588 -0.00218353 0.06259547 -0.02579003 0.03761343 -0.01210479 0.10815181 0.02899233 0.11379885 -0.00222832 0.00861436 0.05181662 0.09680853 0.04181525 -0.03191710 0.00644607 -0.03511084 -0.01204303 0.09493664 0.03863784 0.02258469 0.01172434 -0.04895914 -0.13546214 0.09307805 -0.02488005 0.02595608 0.02514041 -0.05105485 -0.01167437 -0.09207868 0.00852992 0.14572768 0.08192288 0.12938602 0.04821591 0.02301207 0.11898676 0.04400262 -0.02825937 -0.04095462 -0.15199995 0.11762333 -0.05454304 -0.00740349 -0.09515718 -0.02414402 -0.09189778 -0.14703469 -0.04200406 -0.09226455 -0.00820163 0.01270477 -0.06620586 0.20020501 -0.06637832 -0.05722052 0.03569509 0.09193034 -0.04461893 -0.05732777 -0.02485455 -0.05218823 0.03737674 0.07377098 -0.10156793 0.03865235 -0.02124175 0.03790069 0.06056372 -0.05282192 -0.09469885 -0.06378507 -0.02229561 -0.11247459 0.08047219 -0.00599788 0.08151481 0.02753028 -0.05509752 0.00388132 0.06086975 0.09630159 0.04371246 0.01029920 0.02636172 0.09131023 0.09372985 0.09567034 -0.06008269 -0.12713219 0.03106402 -0.01142559 0.08131309 0.01566100 0.04554769 -0.13803820 0.01673383 0.05146345 -0.03544221 -0.01180162 0.17091288 -0.11339307 0.01651819 -0.02776388 -0.05798788 0.07021388 0.23059775 -0.08781697 -0.00547773 -0.02239598 -0.07988275 0.00172019 0.11350556 -0.08518717 -0.01069267 -0.09204507 -0.11831179 -0.02239425 0.20719509 -0.00860289 -0.03731631 -0.05761265 -0.01318382 0.01594526 -0.00828445 -0.01267375 -0.00041867 -0.02350225 0.00080775 -0.00035517 0.01615120 0.16076022 -0.01720576 0.02905077 -0.01965035 0.03077741 -0.01251686 0.22455949 -0.00424705 0.02147529 0.01638787 -0.02254234 -0.05123667 0.21577357 0.04697677 0.12903771 0.00386058 -0.02741404 -0.02327435 0.18832658 0.00935622 0.05099851 0.01679097 -0.01709214 -0.04587852 0.18103254 0.02905682 0.07363541 -0.09571591 0.00686334 -0.06787007 0.15979473 0.02958289 0.12438378 -0.02618082 0.00698543 -0.04439276 0.12527567 0.01448191 0.07678054 -0.09467767 -0.03205223 0.07803521 0.15011716 0.02039880 0.02436345 0.04427132 -0.00748291 0.01664754 0.07161538 0.00107411 0.08035716 0.08760120 0.14193588 0.09486226 -0.11090136 0.07525886 0.06076609 0.07847273 0.10664690 0.12823406 0.09137480 0.03549165 0.07768466 0.13652389 -0.01066277 -0.01136705 -0.02963869 -0.05688465 -0.03675672 0.03794594 0.00730109 -0.09576434 -0.07742695 -0.02818878 -0.03524673 0.02086290 -0.14563523 -0.05350498 -0.07470850 -0.07044999 -0.11526661 0.04720657 0.02345602 0.01397161 0.05330772 -0.03464135 -0.02751692 0.13750266 0.17768748 -0.03854752 -0.05916344 -0.00542991 0.03167837 0.14248428 0.12591422 0.16276756 0.02660699 -0.06454514 -0.05630634 0.16181409 0.12360398 -0.05938746 -0.06502705 -0.00899168 0.00760722 0.12575880 0.10851694 0.19967297 -0.09140450 -0.02961914 0.04647701 0.05135782 0.14618060 0.23220193 -0.12750660 -0.01596778 -0.01716323 -0.02792414 0.13259228 0.19685735 -0.20409675 -0.03535362 0.08219154 -0.10911332 0.12620340 0.25620672 -0.10601184 -0.01791078 -0.08756189 -0.07213686 0.08847097 0.35546058 -0.04883064 -0.07413204 -0.08667316 0.02042294 0.02433272 0.16757578 -0.03901267 -0.07673921 -0.10960312 0.12370885 -0.01398653 0.04073450 0.00962793 -0.04838546 -0.01603271 0.08821165 -0.03098994 0.00649065 0.04585581 -0.00070762 -0.02631274 0.11221919 -0.04443998 -0.06651933 0.11871041 0.03275766 0.10752967 0.03971768 0.02155019 0.12361383 0.20672718 0.00902610 0.00053452 0.02426863 0.02824060 -0.08716193 0.26192737 -0.01682990 0.11198744 0.06141204 -0.03069234 -0.06237592 0.25837034 0.03513115 0.05992364 0.01257695 -0.08564781 -0.03881059 0.20923471 0.02655280 0.02271066 0.00218306 0.04995436 -0.02814240 0.13036150 -0.00820269 0.10110296 -0.05751600 0.01362637 0.02476236 0.20878083 -0.02073632 0.13515757 -0.16004889 -0.12168972 -0.22109935 0.08359366 0.03383981 0.05296553 -0.12677115 -0.03733003 -0.08958402 0.03179973 0.00541389 0.06103700 0.05058103 0.00088878 -0.03054534 0.07070229 0.02809241 0.06786536 -0.01162852 0.06677668 0.02105558 0.16238053 0.15880257 0.07087825 -0.02761819 0.00684263 0.00746031 -0.00899676 -0.03556699 -0.04852497 0.01448841 -0.02176043 0.01444362 -0.28584334 0.00277913 -0.03172996 -0.03216147 -0.02604593 -0.08988845 0.09078830 -0.04885991 -0.01558338 0.04865816 0.03633155 0.09820567 -0.16309164 -0.01942539 0.00049128 0.11853418 0.06374051 0.03263631 -0.09324623 -0.01385257 0.01898437 0.03206097 0.07591336 0.12970553 0.08723462 -0.04913066 0.02716048 0.07671894 0.07530162 0.13599525 -0.12016950 0.00392890 0.01814956 0.02699505 0.05515156 0.04664398 -0.21194871 -0.01599386 0.01584298 0.00673308 0.14547919 0.16258560 -0.16965741 -0.03705460 0.00879503 -0.01819258 0.26369038 0.21939415 -0.25158483 -0.04104254 0.01787893 0.02162375 0.20310713 0.23287296 -0.17597044 -0.08425400 -0.15551324 0.18308651 0.08983725 0.19659665 -0.13601290 -0.09630060 -0.20230302 0.04359935 -0.04377085 0.04554079 0.06244953 -0.05883168 -0.03894117 -0.05659634 -0.13820170 -0.06380275 -0.15171243 -0.05048668 0.00857908 0.06115129 -0.05266070 -0.14939396 -0.14219907 -0.01544258 0.08085518 0.14835076 -0.01414089 -0.22581333 0.03328141 0.01849015 0.07993859 0.16705376 -0.06104825 -0.16613106 0.27743071 0.00225078 0.06643306 0.02395571 0.04347894 -0.12841314 0.26676518 0.01609395 0.20419726 0.07733880 0.02954373 -0.14967108 0.28613949 0.08018413 0.08236855 0.05062609 -0.00635886 -0.10142430 0.22728623 -0.00021720 0.10567098 0.02618560 -0.01424471 -0.08273521 0.17122450 0.06773401 0.09265359 -0.06725519 0.05141555 0.04340884 0.22593161 0.00740290 0.16405651 -0.12258158 0.03495030 -0.12452172 0.14412011 -0.01330936 0.06021723 -0.17585084 0.04725022 -0.22301714 0.03701998 -0.01071899 -0.01994750 -0.14022975 0.05767709 -0.11471400 0.07611785 0.01134033 -0.01883667 -0.10680658 -0.00260687 -0.04521126 0.07092490 -0.01954605 0.06204762 0.05141829 0.02908622 -0.05556114 -0.00096934 0.02939084 0.04300803 -0.02761571 0.02638110 0.03542132 0.03207691 0.02487177 0.01773159 0.09607501 0.03253585 0.10088555 0.04112386 -0.01071160 -0.07591663 -0.07443982 0.05337796 0.03899674 -0.07893411 -0.10563339 0.00168289 0.01940532 0.00054536 -0.08315535 0.05926961 -0.04821475 -0.04248018 -0.01181328 0.00567526 -0.10418083 -0.03627821 -0.06378045 -0.05974583 -0.00218720 0.04442327 0.11722413 -0.25464764 -0.03443573 -0.08324744 -0.03686516 -0.00649376 0.13291164 -0.18134901 -0.04202837 0.02072043 -0.08221405 0.07448334 0.17134437 -0.24409488 -0.02836025 -0.09808295 0.05041723 0.07309099 0.09866817 -0.15958376 -0.06668324 -0.11467185 0.16506185 0.09949260 0.07224669 -0.19084415 -0.16253518 -0.26417452 0.16165766 0.00498927 0.00646336 -0.19966431 -0.14707890 -0.13916129 0.07330281 -0.02065662 -0.10938535 -0.16635227 -0.09482135 0.05025988 0.01428091 0.07790141 -0.13549314 -0.43227580 0.00213439 0.01462577 0.05553811 -0.00874700 -0.10580864 -0.14068066 0.08545497 0.04453846 0.04648232 -0.14702445 -0.15059648 0.10122576 0.09409877 0.06006747 -0.00007286 -0.04659472 -0.11240477 0.26345780 0.03728051 0.10554847 -0.03652500 0.00122022 -0.10593857 0.26524028 0.04664972 0.05161354 0.03405543 -0.02624098 -0.19952169 0.40420052 0.02737590 0.09278875 -0.08905533 0.01246237 -0.11842191 0.12397946 0.06104894 0.17951933 -0.05171750 0.01767803 -0.17839317 0.12844762 0.10655206 0.08840799 -0.04684987 -0.07191647 -0.06870611 0.14471139 0.06706374 0.05303269 -0.00586063 -0.00933520 -0.09269235 0.08026279 -0.04881291 -0.16336507 0.04159088 -0.10199571 -0.12603740 -0.02091645 -0.06405754 -0.00717058 0.03667029 -0.12824023 -0.04225210 -0.01794587 -0.02388305 0.05779324 0.08178800 -0.03381772 -0.05008941 -0.11007681 0.01521672 0.09963016 0.00334498 0.06569832 -0.09279359 -0.08893172 0.02199340 0.03654731 0.07496162 0.02584972 -0.11319578 0.10931684 0.04321560 -0.00484800 0.09941912 -0.08212201 0.16314454 -0.06861264 -0.01227410 -0.09033651 -0.07109488 -0.07510231 0.19266900 0.26310980 -0.08587386 -0.05902055 0.01287646 0.03292208 0.02480258 -0.00323012 -0.07948927 -0.09353572 0.05813604 0.01056241 -0.17265794 -0.02723288 -0.09049291 -0.05703288 0.00559427 -0.02554205 -0.14385712 -0.02571466 -0.03813478 -0.04953870 -0.02106239 0.01398889 -0.10810818 -0.23362605 -0.07210281 -0.05025245 0.07588389 0.06794456 0.05818162 -0.25983348 -0.08002978 -0.12153536 0.22078566 0.12381192 0.07472340 -0.15291743 -0.16055517 -0.16685425 0.17781754 0.05264309 -0.03892314 -0.16030224 -0.10292096 -0.10257830 0.10453885 0.00520282 -0.08667903 -0.24202922 -0.06464987 -0.01273293 -0.00616504 -0.00904006 -0.12721460 -0.41792798 -0.02956650 0.07102904 0.01874899 0.07007097 -0.12444152 -0.37712732 0.04976321 -0.04303340 0.04050308 0.06451815 -0.18019031 -0.08359563 0.03528645 0.04412793 0.08650637 -0.00579390 -0.18321478 0.10218540 0.09215271 0.14269622 0.10204157 0.12903284 -0.06927612 0.08115848 0.11752114 0.07916982 0.07001819 0.05580322 -0.15631241 0.20348451 0.01691562 0.00403712 -0.00101562 -0.05761027 -0.22466175 0.19619758 0.06298237 0.08864310 -0.04739333 0.04589216 -0.17964076 0.12594521 0.06690580 0.12793459 -0.09551959 0.06191556 -0.16876777 0.12974399 0.05490694 0.10823046 -0.11936454 -0.00554526 -0.15544151 0.02414827 -0.00436266 -0.01070962 -0.08964452 -0.05385063 -0.10462573 0.05924178 -0.05454576 -0.08888368 -0.17503884 -0.04091783 -0.16661619 -0.05376251 -0.10063019 -0.01873974 -0.13294974 0.07808261 -0.19315289 -0.02768292 -0.02290920 0.04634690 -0.21667074 0.10623591 -0.25906876 -0.13723683 0.02693317 0.01891692 0.02028368 0.06992753 -0.01705266 0.06264410 0.07495992 0.03236172 0.00907313 -0.07702529 -0.00993678 -0.17299247 -0.01442478 0.08017907 -0.00493783 -0.10629275 -0.00795800 -0.05914472 -0.04622914 -0.03024926 -0.05892562 -0.14187825 -0.13225669 -0.03325075 -0.05793820 -0.05095221 -0.00144824 -0.04033925 -0.36523589 0.04173370 -0.07709789 -0.09476883 0.08591660 0.02894824 -0.15686408 -0.10123723 0.01017208 -0.02851635 0.12924282 -0.01431230 -0.20747793 -0.01609057 -0.06482560 -0.06875606 0.10434902 -0.00237813 -0.30536994 -0.25251076 -0.07469876 -0.07674301 0.17694813 -0.02935767 -0.05105756 -0.11200606 -0.05944449 -0.14097793 0.30255380 0.03842836 0.07007214 -0.22313929 -0.06539455 -0.14434300 0.34879741 -0.03263870 0.03841628 -0.05717390 -0.07104347 -0.06794948 0.18712719 0.03009795 -0.03609466 -0.31952393 -0.07032681 -0.02900725 0.06448434 0.06730554 -0.13875172 -0.37355050 -0.01413547 0.01757589 0.09963879 0.04976323 -0.18120046 -0.11616741 0.03854151 0.01354911 0.11505842 0.07456552 -0.23053809 0.01637619 0.03295700 0.11964141 0.02026128 0.10594462 -0.04260660 0.05541863 0.12018534 0.17458698 -0.02051907 0.04512793 -0.10731377 0.17291971 0.06616039 -0.03998911 -0.04118244 -0.03489881 -0.12859383 0.14938112 0.07109382 0.02877492 -0.06728849 -0.02039593 -0.11799560 0.08573814 0.01467611 0.10845551 -0.15267046 -0.00401958 -0.09083398 0.08731477 0.04541357 -0.02999554 -0.13657643 0.07549964 0.01118812 -0.03898951 -0.02544181 -0.03510679 -0.10028245 0.08145888 0.01055215 -0.01302152 -0.02056160 -0.13270779 -0.03986979 -0.03699406 -0.05761715 -0.04217287 -0.06863961 -0.14863355 -0.04808524 -0.01393885 -0.06937374 -0.04693459 -0.12154458 -0.15369648 -0.05244721 0.00971762 -0.08328205 -0.04582141 -0.11695124 -0.03470215 -0.11085804 0.02718893 -0.27401772 -0.17658174 -0.13235269 -0.02535676 0.06111105 -0.08912895 0.01772217 0.01553054 0.02957205 -0.04631019 -0.05904627 -0.00969341 -0.02158399 0.05274287 0.02033439 0.04343088 -0.08151760 0.04629807 0.00544369 -0.11373548 0.02651057 0.00265130 -0.12427966 -0.08235941 -0.00514680 0.16424087 -0.02430114 -0.01933740 0.00787213 -0.02761913 -0.02919313 0.01632999 -0.00988095 -0.03441372 0.04127770 0.04464512 -0.06840188 0.05970719 0.00272200 0.03344828 0.11603878 0.04151601 -0.14882353 0.00960386 -0.05348301 -0.10766783 0.13668358 0.04585977 -0.30082089 -0.27708569 -0.03962122 -0.06126293 0.24612118 0.10803407 -0.17392829 -0.24752852 -0.08558071 -0.10313694 0.27610287 0.02014921 0.00555065 -0.05179489 -0.10289309 -0.11342618 0.28904170 0.02576263 -0.11833375 -0.09899523 -0.04649710 0.06550927 0.17597479 0.02270968 -0.09797852 -0.22079884 0.02399315 0.02800211 0.05547349 0.03085584 -0.04959725 -0.19313852 0.04206356 0.04632807 0.09440506 0.02978563 -0.05965887 -0.05193701 0.00505526 0.00330859 -0.01927049 0.08232211 -0.00885909 0.02389574 0.06549477 0.13808100 -0.03483915 0.13530335 -0.16140763 0.03459142 0.06022228 0.14932437 -0.01646604 -0.01522403 -0.16961652 0.11945607 0.08793187 -0.01688683 -0.05814300 -0.02853580 -0.09489145 0.05803534 0.03923268 0.03886753 -0.04118732 0.05430762 -0.09749757 0.02817537 -0.00765682 0.07094617 -0.07727475 0.04228532 -0.07992220 -0.05217130 -0.03392602 -0.08763133 0.00789755 0.03554064 -0.05276812 -0.02681165 -0.01029531 -0.06694192 0.03107396 -0.06582887 0.02462284 -0.00816062 -0.06561446 -0.09384235 -0.00606627 -0.09279952 -0.03701348 -0.03966644 -0.10048133 -0.10418829 0.07422641 -0.23089164 -0.06314912 -0.06521193 -0.10841654 -0.14058644 0.06368778 -0.22315586 -0.00222057 -0.06488267 -0.09541903 0.02934013 0.11189999 0.05140770 -0.10217789 -0.25650710 -0.08010133 0.06765991 -0.00305298 0.06100177 -0.01589060 -0.11693653 0.00332194 0.07989820 0.05959026 -0.09444912 -0.07562933 0.01822045 0.07213176 -0.05384246 -0.01147477 -0.14570315 0.08471981 0.02270238 -0.02328345 -0.02174261 0.06073017 -0.11189459 -0.05500292 0.11193206 0.01146317 -0.01279023 0.06569009 -0.07078834 -0.06805566 0.06707904 0.02469654 0.03192263 0.13676836 -0.03385175 0.01148035 0.09734387 0.03036473 0.03855511 0.17794168 -0.00382071 -0.11721224 -0.02476514 -0.02715749 -0.03262822 0.13343450 0.04537140 -0.19667193 -0.09656055 -0.03213070 -0.06710103 0.18522765 0.04734524 -0.17791924 -0.00370675 -0.03158082 -0.04971687 0.18919648 0.05221902 -0.13265632 -0.01365784 -0.02143332 -0.01587312 0.07287911 0.11536111 -0.08982052 -0.13511103 -0.01449999 0.02869463 0.12317865 0.19257015 -0.22812741 -0.21485282 0.02932449 -0.03190684 0.18119758 0.14156362 -0.11702850 -0.09086227 0.06603093 0.01983262 0.13882260 0.05212317 -0.03658013 0.10412190 0.05984373 0.07627641 0.07984570 0.08555406 0.00596241 0.03604348 0.04127488 0.14645463 0.05355772 -0.09197226 0.00883128 0.14545135 0.11728889 0.00174616 0.06605535 -0.05843147 -0.17519863 0.05932965 0.04615227 0.03210319 -0.00205220 -0.03059465 0.00801750 -0.07153812 0.05719148 0.02670568 -0.01272945 -0.00846852 0.03634637 -0.04080175 0.02433567 -0.03197262 -0.00703354 0.01066349 0.06221353 -0.03403158 -0.00133551 -0.06120370 0.11536305 0.01207406 -0.01136683 -0.07006070 -0.08954709 -0.06841105 0.05588706 -0.11705098 0.06902567 0.02892653 -0.05214274 -0.08933798 -0.02549542 -0.16657510 0.03494033 -0.04328511 -0.10429396 -0.04657217 -0.02620374 -0.12845223 -0.05703585 -0.02714036 -0.09834955 -0.04234444 -0.08988442 -0.06269822 -0.05090042 -0.14482358 -0.10784861 0.01662661 0.07872412 0.11414342 -0.02020136 -0.06821114 0.02765724 0.01344071 -0.04125272 0.05018809 -0.01363291 -0.01464767 0.06843513 0.03805260 -0.07383065 0.09892931 -0.04627769 0.04179391 -0.01081561 0.10828564 -0.04086532 -0.00863014 -0.07447288 0.01578936 -0.00342849 -0.03050464 -0.04474717 -0.04212470 -0.03822871 -0.17410462 0.00504093 -0.01989538 -0.07131519 -0.00702370 -0.22490145 -0.10302090 0.00398193 0.07030603 0.05809795 -0.01334077 -0.10620561 0.19783509 0.08912811 0.05076430 0.08578394 -0.07862667 -0.06727844 0.06964171 0.07172814 0.01870511 0.14357927 -0.00942563 -0.15722921 -0.02640508 0.00323647 -0.00504034 0.12423954 0.01574536 -0.11913598 0.18466240 -0.03284046 0.02780274 0.00502701 0.14738528 -0.16386485 -0.13326541 -0.01343436 -0.01740570 0.10912617 0.24519229 -0.18835929 -0.05544036 -0.04730811 0.00394940 0.10961648 0.17053983 -0.19579107 0.11697836 0.04015892 0.01649493 0.12463170 0.12591162 -0.24287590 0.01700111 0.00183428 0.03961656 0.07381006 0.10269036 0.04114974 0.13364702 0.00046678 0.08763928 0.05284062 -0.04895914 0.04187511 0.03284995 0.07024784 0.04654315 0.05731231 -0.00509223 0.11661256 0.05629926 0.03320280 0.04465993 0.07098215 0.01493426 0.13745110 -0.08807708 0.04385083 0.00549292 -0.01739694 -0.04654646 -0.02101779 -0.00112048 0.10213452 0.02936139 -0.07402720 -0.12477800 0.11040053 -0.03819650 -0.04198915 -0.08344523 -0.01224720 -0.03233299 -0.00110831 -0.04489258 -0.07695756 -0.12379947 0.04807243 -0.04912105 0.01847471 -0.09706751 -0.09583928 -0.04087567 0.06917441 -0.07565007 -0.03215523 -0.02037586 -0.07468132 0.02899321 0.03374430 -0.00926660 0.06882423 -0.04289703 -0.02181684 -0.01009660 0.02262815 0.01207292 0.02709984 0.03544733 -0.05694354 0.00511669 -0.09569898 -0.00329050 -0.16909729 -0.07919644 -0.00846139 0.02496949 -0.02370130 -0.03703855 0.00112110 0.04669868 -0.02125577 0.07913183 0.03932359 -0.00818572 -0.03843332 0.09499408 0.05415832 -0.06256066 0.06099945 0.07894578 -0.08992959 -0.01053475 0.08458329 0.00778333 0.03612317 0.06932963 -0.07087515 -0.07823384 0.01326902 -0.01698700 0.00270155 -0.01868286 -0.19675142 0.08238379 0.07002927 -0.01181633 -0.05953828 -0.03441095 -0.11774104 0.01272579 0.02963570 0.08478461 -0.06210053 0.12599221 -0.15951903 0.17007124 0.02741994 0.09499944 0.07688356 0.06729619 -0.07207564 0.10627700 0.08003287 0.09708965 0.02467538 -0.02427422 -0.18127684 0.15381929 -0.01062633 -0.04833206 0.05225750 -0.04266601 -0.24002412 0.07959288 -0.01572861 0.02131460 0.05309688 0.01869774 -0.18285128 0.02066853 -0.01188019 -0.02253760 0.01372436 0.03855754 -0.08527958 0.03670550 0.00088080 -0.09113771 0.02413573 0.08374570 -0.06342155 0.22657503 -0.04074169 -0.00536366 0.10094440 0.08822512 -0.16534574 0.09447617 -0.01061801 0.04410103 0.01058447 -0.05278497 -0.04597402 0.30918601 0.03470093 0.05789208 -0.00037361 -0.07464877 0.08820033 0.03742665 0.07439195 0.01817454 -0.00059058 -0.00093391 0.23497018 0.01016892 0.09455987 0.09896670 0.01152751 0.03427646 0.23090309 -0.10613932 0.12893578 0.05520998 -0.05823851 0.07201944 0.18605481 0.05854600 0.05161045 -0.04304076 -0.03513518 -0.01918775 0.18578564 -0.10346942 0.03737653 -0.11099653 -0.04864962 0.05719193 0.23192620 -0.00244036 -0.04814563 -0.06612895 -0.02677712 0.14824887 0.14329974 -0.07412031 -0.10671792 -0.12165446 0.02786471 0.10299392 0.03463326 -0.07931171 -0.07230590 0.03980038 0.00097628 0.05456706 0.02041512 -0.07571211 -0.00885240 -0.08810643 0.11549365 0.02707707 0.07128630 0.06551418 -0.05472424 -0.02127928 0.13165458 0.02646719 -0.13691209 -0.16993394 -0.03051642 0.00504468 -0.04665150 0.00056076 -0.01088798 -0.01568558 -0.03468955 -0.06059881 0.14379221 -0.04649469 -0.03047801 -0.06704915 0.04326984 -0.06370398 0.05242016 -0.04490375 -0.10462148 0.06111816 0.02148612 0.06174795 -0.03665487 -0.01821594 -0.12676200 0.04245322 0.02934265 -0.03120436 0.05528507 -0.06569500 -0.30854353 -0.08647150 -0.00031559 0.05342959 0.02430905 -0.06291752 -0.28998080 0.17534709 0.00383957 0.07872596 -0.01998408 0.00989352 -0.31402716 -0.00320729 0.05637314 -0.01091368 -0.04506989 0.09325486 -0.12510553 0.29702806 0.07113408 0.15638614 -0.02455259 -0.02908812 -0.02617157 0.25595298 0.05834712 0.01455884 0.02248931 -0.03339726 -0.05514580 0.13297181 0.04725618 -0.04637266 0.00946265 0.08096597 -0.00896891 0.08004723 -0.02397710 0.00850986 0.03881359 -0.00791707 -0.13538624 0.06693437 -0.07219296 -0.06260919 -0.01231175 0.00902164 -0.05703911 0.24759100 -0.01602384 0.01682988 -0.06466424 -0.09129336 -0.14042909 0.13823098 0.01020759 0.10600913 -0.11441118 0.02612034 -0.04373316 0.22472461 -0.00809967 0.10909709 -0.00351684 0.04338066 0.03950955 -0.05738889 0.06052933 0.02492126 -0.03486742 0.05566085 0.10287240 0.09991223 0.09307653 0.05928002 -0.00449339 0.05254821 0.27597478 0.10399463 0.04996442 0.04872141 0.06828998 0.00975705 0.22103301 0.03248966 0.06712736 -0.04465287 0.07349727 0.04560958 0.25983065 0.00312933 -0.03473741 -0.05084564 0.17828330 0.01972702 0.14837465 -0.08566524 -0.02109437 -0.07621172 0.22606860 0.02421852 0.22165272 -0.08871899 -0.01983378 -0.13901754 0.20895419 0.08812732 0.15810966 -0.08362704 -0.07243933 0.03222741 0.27249798 0.09986087 0.01817278 -0.14769238 -0.04253769 -0.03104850 0.11514505 0.05217133 0.03290020 -0.00218383 -0.09181190 0.01831382 0.13792573 0.01072969 -0.10187387 -0.15983517 -0.00986923 -0.00860772 -0.13440621 -0.06621933 -0.13243651 0.00859348 -0.06322197 -0.12991612 0.03818779 0.06618028 -0.01925970 0.03657495 0.04253971 0.11380450 -0.02510177 0.06109017 0.05371018 -0.06134177 0.10993866 0.09536009 0.02345428 -0.01400913 -0.08287708 0.07873660 0.02710593 0.00036496 0.02107494 0.07284764 -0.20190014 -0.03082858 0.02690053 0.00164834 -0.04414760 0.01933715 -0.14335349 0.26858369 0.04199098 0.09593996 -0.04901537 0.01154619 -0.11692163 0.08816376 0.06414343 0.00239443 -0.09250719 0.03967017 -0.04640830 0.20145446 0.01367060 0.08973127 -0.05977525 0.07300622 -0.08063072 0.16373259 0.04374070 0.07072432 -0.00708787 0.03849009 -0.07819428 0.12480674 0.00467125 0.01352329 -0.00885952 -0.04911236 -0.06574710 0.24065782 0.01346752 -0.02299526 -0.04113080 -0.01405225 -0.07867911 0.20610268 -0.04737491 -0.09381284 -0.03854851 0.10176431 -0.07715777 0.26822573 -0.02412801 0.00708021 0.00924439 0.08096322 0.02193403 0.08161203 -0.02036731 -0.00415720 0.00495673 0.02463925 0.04755735 0.08783054 0.01894108 0.04624318 -0.11380432 0.05630496 -0.06786364 0.05545654 -0.00678697 0.05561063 -0.16389169 0.08399820 -0.03743719 0.09179317 0.01693092 0.16147323 -0.20307885 0.06387687 0.09817892 0.01965751 -0.00051486 0.05207469 -0.15447119 0.08435242 0.24726583 -0.03067023 0.02934913 -0.00604956 -0.08767045 -0.02024530 0.35357124 0.04082647 0.00041546 -0.07937265 -0.08594646 -0.02216783 0.20237830 -0.04404823 -0.04291977 -0.07319169 0.10024320 -0.05184552 0.17798591 -0.14718160 -0.06514513 -0.13722053 0.22221071 0.01724630 0.20006321 -0.13139160 -0.05633434 -0.08191629 0.21852647 -0.00175567 -0.02873787 -0.10214606 -0.10148009 -0.07108320 0.20519470 0.09680858 0.05284290 -0.10165190 0.00204624 0.00088056 0.00182666 0.04149738 -0.01429543 -0.06756631 -0.02725730 -0.09214474 -0.13613230 -0.11742216 -0.07030484 -0.00730848 -0.13263817 -0.17045383 -0.02477340 0.16193238 0.00098962 -0.16948591 0.07135370 0.11777554 -0.12928434 0.04036850 -0.09123249 -0.11240645 0.04220722 0.09952677 -0.09745456 -0.02705921 -0.09256363 -0.05809905 -0.02041651 -0.00639506 -0.12964268 0.04291182 -0.04519663 0.14847139 -0.00604451 0.05281911 -0.03121235 0.06876667 -0.22594704 0.28445515 0.00417516 0.05637366 -0.12278657 0.04800513 -0.21746275 0.26430470 0.03714141 0.05885915 -0.00907918 -0.00352485 -0.27567554 0.16882151 0.06584401 -0.00038831 -0.07494574 0.01127222 -0.24488305 0.20571536 0.04315706 -0.01244322 -0.15300970 -0.03831946 -0.26652533 0.19960278 0.01064155 0.00253818 -0.07906591 -0.04283774 -0.16947335 0.27046084 -0.05799327 -0.00969058 0.04303892 -0.08420283 -0.14704025 0.29919791 -0.07829170 -0.08751082 0.04169403 -0.12895475 -0.18027215 0.05024027 -0.07127834 -0.01752339 0.04185449 -0.02589352 -0.03714839 -0.02453132 -0.06019770 -0.00443696 -0.06408112 0.02973782 0.10676579 0.04418423 -0.01591133 0.04397028 -0.07969551 0.06406619 0.25727788 0.09140497 0.02039394 0.00197543 -0.17109302 0.00557017 0.28138858 0.10613400 0.01314523 0.07141358 -0.24037829 0.08442938 0.21288429 -0.06002444 -0.04427820 -0.04770136 -0.04955431 0.05427920 0.46272069 0.03852834 -0.03514804 -0.12201607 -0.01286219 -0.06687915 0.44873884 0.01618461 -0.03951337 -0.07266792 0.06230401 -0.08748555 0.35751885 -0.03846573 -0.08294551 -0.03626360 0.10418633 -0.10336423 0.25629830 -0.08972285 -0.04405932 -0.09570475 0.13692603 -0.06575048 0.27344346 -0.13030131 -0.08126906 -0.08596332 0.12576969 0.00567365 0.15548816 -0.15128444 -0.04942929 -0.04219276 0.05723471 -0.03366263 0.02001713 -0.11695836 -0.03246543 -0.01510912 0.01640593 -0.13326579 0.07043573 -0.02325465 -0.09761410 -0.06717855 0.01287447 -0.11557457 -0.09940095 -0.05054884 -0.16786061 -0.20171870 -0.10447402 0.11027273 0.03790547 0.03191706 0.08552177 0.03476559 -0.15947439 0.09421903 0.00739355 -0.03993584 -0.01191746 -0.01621646 0.07325543 0.10001039 -0.05928226 0.09267897 -0.05286174 -0.01137202 0.00478776 0.05002754 -0.04728425 0.18239824 -0.00938771 -0.02049736 0.02051383 0.02442658 0.01270171 0.25555748 0.01362589 0.00942535 -0.02432487 0.01074708 -0.14186703 0.14660525 0.07331993 0.05111172 -0.04135453 0.02676203 -0.14341547 0.18806830 0.05678011 0.02402489 -0.09848206 0.00346426 -0.12399182 0.12270784 -0.01499078 0.02994321 -0.11722829 -0.08958750 -0.10607446 0.28518105 0.02799898 -0.04049191 0.04094887 -0.09882201 -0.20567608 -0.06425469 -0.03007251 -0.06627826 0.05315383 -0.06492593 -0.09331925 -0.08250467 -0.01037391 0.00584022 -0.03461828 -0.11468501 -0.01536074 -0.06244754 -0.01956021 0.01029894 -0.14206584 -0.04764926 0.04392671 -0.02222245 0.01230092 -0.05117721 -0.03114400 -0.00603231 0.23358786 0.03786387 -0.00832800 0.02103913 -0.02310457 -0.02922991 0.26391315 0.05802547 -0.08325004 -0.04163311 -0.02734227 0.03625265 0.36915129 0.02292498 -0.03085753 0.02908719 0.04416675 -0.01128705 0.40376228 -0.01022631 -0.00565338 -0.11617462 0.16609235 -0.08282746 0.34349501 0.01283539 -0.02240834 0.03470613 0.09830017 -0.01719117 0.39813244 -0.07276736 -0.01064999 0.02102843 0.09656048 0.03115701 0.36122036 -0.09371568 -0.00604759 0.00084037 0.04050369 -0.05013444 0.20839611 -0.08335518 0.01042853 -0.03698848 0.14428788 -0.05306437 0.07050258 -0.12362423 -0.04957884 -0.04909438 0.17240152 -0.03589732 0.17377372 -0.11981649 -0.04238725 -0.04517819 0.22249639 -0.01898633 0.06353366 -0.07343076 -0.01810960 -0.02556486 0.06179687 -0.16555010 0.02645533 0.05471313 -0.06561574 -0.07417455 -0.00618237 -0.18796927 -0.00403485 -0.08203089 -0.09476942 -0.15305613 0.02943162 -0.06542674 0.00399852 0.03711725 -0.04018389 -0.04878989 0.02092201 -0.17368425 0.06969647 0.10524647 -0.08823945 -0.21533419 0.02892291 -0.09773924 0.08033200 -0.22265451 -0.09528740 -0.09119170 -0.08243100 -0.08816244 -0.12359065 0.06234773 -0.06744756 -0.03828517 0.02713747 -0.05597328 -0.05187405 0.11475939 0.01213066 0.01926700 -0.04799468 -0.03438454 -0.15583874 -0.02606839 0.06945022 0.06591360 -0.00899735 -0.06373063 -0.17379746 -0.18632784 -0.01194395 -0.02741105 -0.19688353 -0.01151331 -0.07710027 0.06250103 -0.02521671 0.05298075 -0.04908524 -0.02297566 -0.00188818 0.07495701 0.01865246 0.05782513 -0.09381291 -0.05488352 -0.02348000 -0.15876499 -0.02940892 0.06221685 -0.21204939 -0.02562043 -0.23397885 -0.07550122 0.03564805 0.06023554 -0.24984522 -0.06618826 0.00461271 -0.04901833 0.04270058 -0.02531818 -0.18384483 -0.15910551 -0.05105738 0.10603462 0.00736553 -0.13970618 -0.28023767 -0.15683344 0.16448432 0.17051920 -0.02520060 0.01109561 -0.21924160 -0.05991617 0.20126815 -0.05495767 0.00712448 0.03834644 -0.12144233 -0.11546561 0.27319890 -0.02415095 0.01986622 -0.01868628 -0.07679904 -0.08983593 0.18716474 -0.03285292 -0.08656085 -0.04010445 -0.03450063 0.05710174 0.20828930 -0.03263550 -0.09885868 0.11108766 0.06437833 0.04790631 0.11826253 -0.09102768 0.01451130 0.09949873 -0.00189066 0.00592443 0.20854153 0.02390907 0.06155537 0.08213165 -0.03739670 0.03750937 0.21448056 -0.06925552 0.02692422 -0.01972437 -0.09471122 0.02494978 0.00841108 -0.04273517 0.02866354 -0.03048436 -0.05865127 0.03610942 -0.01372226 -0.00722182 0.00178257 -0.06007284 0.03344287 -0.00664881 -0.11410559 0.06475674 -0.05887992 0.06960503 0.07934456 -0.12828629 -0.07378700 0.03044543 0.00642610 -0.00915581 0.02731829 -0.15619157 0.09429808 -0.10840201 -0.00763054 -0.10170102 0.02951661 -0.08221808 -0.03155833 -0.03125694 -0.05788871 -0.02147743 0.12061927 -0.23335986 -0.15606421 -0.00165623 -0.20181189 -0.17402723 -0.13554370 -0.08285247 0.04213113 0.00120937 -0.16280030 -0.11194728 -0.09910604 -0.02614251 -0.09796163 -0.13246772 -0.08305270 0.06979861 -0.15088400 0.13378914 -0.14619049 -0.08715735 -0.03899191 0.01334811 -0.09814257 0.05589177 -0.27679148 -0.04657243 0.07557064 0.08695071 -0.10211634 0.02739314 -0.07918066 0.04304809 0.11218075 0.01447382 0.17193706 -0.04303262 0.08742905 0.15299334 0.13014261 -0.00035933 0.27934974 0.00524014 0.05591240 0.17342222 0.04266073 -0.03629580 -0.04101808 0.08934377 -0.08875925 0.02667725 0.04316993 0.09548666 -0.18778418 0.02011074 -0.17042017 0.02753161 0.06858452 0.02548073 -0.17416489 -0.02526603 -0.10157018 0.27141300 0.00313544 -0.08641761 -0.03279499 -0.09523597 0.17602769 0.12393195 -0.02598106 -0.05700950 -0.25201276 -0.04181669 0.02502720 0.01127853 -0.01144226 0.13020229 -0.23302920 -0.04312185 0.08780532 -0.01902884 -0.00582974 -0.01213897 -0.23567817 -0.10890099 0.21377461 0.11722348 -0.04307773 0.00539219 -0.26316515 -0.08687140 0.21309270 0.02739095 -0.02395975 -0.08404309 -0.16643542 0.04966672 0.11295083 -0.20583288 0.01795658 0.02605049 -0.02421489 0.07187835 0.11208681 -0.04450059 -0.00861473 -0.07139556 0.05079319 0.05153622 0.13848810 0.02546135 -0.02432887 0.06892082 0.02759645 0.02893292 0.19285606 -0.03919011 0.03520010 -0.06591719 0.10553761 -0.01931520 0.12526222 0.06585526 -0.02547910 -0.09523346 0.05854381 0.00050650 -0.03068915 -0.06279716 -0.04123397 -0.09150553 -0.07574385 0.03679440 0.02713995 -0.05695703 -0.06102604 0.04402621 0.12554583 0.05167976 -0.05844746 -0.04803248 -0.03285778 0.02920001 0.02869204 0.01592923 0.09230874 0.07935266 -0.01555995 0.00667917 -0.00726860 0.01769598 -0.03446599 -0.03820195 0.01109657 -0.00377629 -0.00041272 0.01699825 -0.05516585 -0.00276274 0.01254955 -0.02949122 0.10070127 -0.03018263 0.07239950 -0.01184244 0.07938677 -0.08352555 0.08218398 -0.08307579 0.08656186 0.07945935 -0.02309207 -0.04537133 0.09448478 0.04000930 0.03116229 0.34748566 -0.00679715 -0.08083213 0.17583904 0.13087349 0.01988226 -0.02041107 0.05137400 0.22943562 0.19080521 0.15606388 -0.05421710 0.11077639 0.05150063 0.17460591 0.23519810 0.06581218 -0.09256285 0.22305071 0.04480639 0.14239258 0.17478466 0.03807253 0.14961202 0.26253736 0.07777700 0.04702378 0.18974371 0.00768863 0.08760352 0.04686376 0.15116799 0.04920036 0.19548902 -0.07519256 0.06639317 0.30640587 0.02129607 -0.04790453 -0.00677114 -0.06043835 0.15021211 0.26962709 -0.10627785 0.01132947 0.04095741 0.04224433 0.29908589 0.13255470 -0.00626678 0.15503813 0.00996775 0.06199537 0.07205552 -0.03661966 0.14080295 0.20160465 -0.03841496 0.04399093 0.02487349 0.25308511 0.05318713 -0.13851923 -0.05591929 -0.00151212 0.00168913 0.11528487 0.04539286 0.06770954 0.04861880 -0.04286456 0.20110984 0.16430096 -0.06439824 -0.02317929 -0.00772453 -0.03598396 0.26398936 -0.05353018 0.00122136 0.02989487 -0.02216768 -0.00083356 0.07088525 0.06308943 0.00753370 0.11495277 0.09806712 -0.01784417 0.11556684 -0.03758504 0.03870214 -0.00808685 0.14075871 -0.05461000 0.15984239 0.05140030 -0.04235021 -0.04805822 0.08033859 -0.15765646 0.05125989 0.04552572 -0.09883164 0.00490550 0.05873144 -0.09831183 0.08003933 -0.06000708 -0.06158672 -0.04836552 0.04321341 -0.12962061 0.05842705 -0.15740646 -0.07231614 0.01593058 0.00778601 0.02128852 0.00656802 -0.08284982 0.03220425 0.05291040 -0.04257945 0.01189866 -0.02238493 0.06508290 -0.00052509 0.00633737
